svm_type c_svc
kernel_type rbf
gamma 0.25
nr_class 2
total_sv 7932
rho 0.733846
label 1 -1
nr_sv 3627 4305
SV
1 1:-0.364 2:0.161 3:-0.076 4:5 
1 1:-0.128 2:0.237 3:0.019 4:4.472 
1 1:0.091 2:0.218 3:0.092 4:4.123 
1 1:0.217 2:0.126 3:0.087 4:3 
1 1:0.256 2:0.039 3:-0.115 4:2 
1 1:0.41 2:0.154 3:0.171 4:1.414 
1 1:0.394 2:-0.016 3:-0.054 4:2 
1 1:0.431 2:0.038 3:0.105 4:2.828 
1 1:0.364 2:-0.068 3:0.014 4:2.236 
1 1:0.281 2:-0.082 3:0.056 4:2 
1 1:0.144 2:-0.138 3:0.042 4:1.414 
1 1:-0.036 2:-0.179 3:0.062 4:1 
1 1:-0.277 2:-0.241 3:-0.039 4:2.236 
1 1:-0.479 2:-0.202 3:-0.079 4:2.828 
1 1:-0.496 2:0.098 3:0.095 4:2.236 
1 1:-0.493 2:0.003 3:-0.052 4:1.414 
1 1:-0.438 2:0.055 3:0.033 4:1 
1 1:-0.415 2:0.023 3:-0.041 4:1.414 
1 1:-0.351 2:0.064 3:-0.072 4:2.236 
1 1:-0.215 2:0.136 3:0.078 4:3.162 
1 1:-0.158 2:0.058 3:0.014 4:4.123 
1 1:-0.114 2:0.044 3:0.016 4:5.099 
1 1:-0.086 2:0.028 3:0.12 4:6.083 
1 1:-0.179 2:-0.093 3:-0.091 4:7.28 
1 1:-0.18 2:-0.001 3:-0.007 4:8.544 
1 1:-0.175 2:0.006 3:0.03 4:9.849 
1 1:-0.199 2:-0.025 3:0.015 4:10.296 
1 1:-0.239 2:-0.039 3:0.013 4:10.817 
1 1:-0.29 2:-0.052 3:0.08 4:11.402 
1 1:-0.423 2:-0.132 3:-0.009 4:12.042 
1 1:-0.484 2:0.167 3:0.167 4:2.236 
1 1:-0.484 2:0 3:0.033 4:1.414 
1 1:-0.516 2:-0.033 3:0.082 4:0 
1 1:0.643 2:-0.104 3:0.079 4:10.63 
1 1:-0.374 2:0.22 3:0.1 4:3 
1 1:-0.254 2:0.12 3:0.034 4:3.162 
1 1:-0.167 2:0.086 3:-0.004 4:3.606 
1 1:-0.077 2:0.091 3:-0.211 4:4.243 
1 1:0.225 2:0.302 3:0.286 4:4.243 
1 1:0.24 2:0.016 3:-0.08 4:3.606 
1 1:0.336 2:0.096 3:-0.015 4:3.162 
1 1:0.447 2:0.111 3:0.127 4:3 
1 1:0.431 2:-0.016 3:-0.01 4:2.236 
1 1:0.425 2:-0.006 3:0.022 4:2.236 
1 1:0.397 2:-0.028 3:0.163 4:3 
1 1:0.206 2:-0.191 3:-0.133 4:3.162 
1 1:0.148 2:-0.058 3:0.081 4:3.606 
1 1:0.008 2:-0.14 3:0.01 4:4.243 
1 1:-0.141 2:-0.15 3:0.2 4:5 
1 1:-0.491 2:-0.349 3:-0.287 4:5.385 
1 1:-0.496 2:0.338 3:-0.01 4:2.828 
1 1:-0.148 2:0.348 3:-0.037 4:2.236 
1 1:0.237 2:0.385 3:0.057 4:2 
1 1:0.566 2:0.329 3:0.111 4:1.414 
1 1:0.783 2:0.217 3:0.163 4:2 
1 1:0.838 2:0.054 3:0.065 4:2.236 
1 1:0.827 2:-0.011 3:0.056 4:2.828 
1 1:0.759 2:-0.067 3:-0.015 4:3.162 
1 1:0.707 2:-0.052 3:0.179 4:4 
1 1:0.476 2:-0.232 3:0.031 4:5.099 
1 1:0.213 2:-0.262 3:0.075 4:6.325 
1 1:-0.124 2:-0.337 3:-0.019 4:6.708 
1 1:-0.443 2:-0.319 3:0.029 4:7.211 
1 1:-0.518 2:0.02 3:-0.056 4:3.162 
1 1:-0.442 2:0.076 3:-0.093 4:2.236 
1 1:-0.273 2:0.169 3:0.19 4:1.414 
1 1:-0.294 2:-0.021 3:-0.073 4:1 
1 1:-0.243 2:0.052 3:-0.083 4:1.414 
1 1:-0.108 2:0.135 3:0.246 4:2.236 
1 1:-0.22 2:-0.112 3:-0.114 4:3.606 
1 1:-0.217 2:0.003 3:0.137 4:5 
1 1:-0.351 2:-0.134 3:-0.088 4:5.657 
1 1:-0.397 2:-0.046 3:0.108 4:6.403 
1 1:-0.447 2:0.204 3:-0.055 4:3.162 
1 1:0.759 2:-0.067 3:0.113 4:9.22 
1 1:0.579 2:-0.181 3:0.001 4:8.485 
1 1:0.397 2:-0.182 3:0.229 4:7.81 
1 1:-0.371 2:-0.358 3:-0.006 4:5 
1 1:-0.281 2:0.282 3:0.19 4:2.236 
1 1:-0.188 2:0.093 3:-0.005 4:2.828 
1 1:-0.091 2:0.098 3:-0.025 4:3.606 
1 1:0.032 2:0.123 3:0.096 4:3.606 
1 1:0.059 2:0.026 3:-0.147 4:2.828 
1 1:0.232 2:0.174 3:0.082 4:2.236 
1 1:0.323 2:0.091 3:0.098 4:2 
1 1:0.316 2:-0.007 3:-0.077 4:1.414 
1 1:0.386 2:0.07 3:0.229 4:2 
1 1:0.227 2:-0.159 3:0 4:2.236 
1 1:0.069 2:-0.158 3:0.017 4:2.828 
1 1:-0.107 2:-0.175 3:0.103 4:3.606 
1 1:-0.385 2:-0.278 3:-0.116 4:4.123 
1 1:-0.496 2:0.33 3:-0.024 4:2.828 
1 1:-0.141 2:0.355 3:-0.05 4:1.414 
1 1:0.263 2:0.405 3:0.054 4:1 
1 1:0.614 2:0.351 3:0.161 4:1 
1 1:0.804 2:0.19 3:0.194 4:1.414 
1 1:0.8 2:-0.004 3:0.028 4:2.236 
1 1:0.768 2:-0.032 3:0.093 4:2 
1 1:0.643 2:-0.125 3:0.139 4:1.414 
1 1:0.379 2:-0.264 3:0.115 4:2 
1 1:0 2:-0.379 3:0.04 4:2.236 
1 1:-0.419 2:-0.419 3:-0.098 4:2.828 
1 1:-0.509 2:0.183 3:0.061 4:11.18 
1 1:-0.386 2:0.122 3:0.244 4:10.296 
1 1:-0.509 2:-0.122 3:0.057 4:8.944 
1 1:-0.394 2:0.51 3:0.116 4:3.606 
1 1:-0.406 2:0.124 3:-0.086 4:4.243 
1 1:-0.196 2:0.21 3:0.104 4:3.606 
1 1:-0.091 2:0.106 3:-0.074 4:2.236 
1 1:0.089 2:0.18 3:0.101 4:2 
1 1:0.168 2:0.079 3:-0.024 4:1.414 
1 1:0.271 2:0.103 3:0.145 4:2 
1 1:0.228 2:-0.043 3:-0.032 4:2.236 
1 1:0.218 2:-0.01 3:0.066 4:2.828 
1 1:0.141 2:-0.076 3:0.012 4:3.606 
1 1:0.053 2:-0.089 3:0.137 4:4.472 
1 1:-0.173 2:-0.226 3:-0.09 4:5.099 
1 1:-0.309 2:-0.136 3:0.109 4:5.099 
1 1:-0.497 2:0.077 3:-0.003 4:2 
1 1:-0.418 2:0.079 3:0.124 4:2.236 
1 1:-0.463 2:-0.045 3:-0.071 4:2.828 
1 1:-0.437 2:0.026 3:-0.018 4:3.606 
1 1:-0.394 2:0.043 3:0.057 4:4.472 
1 1:-0.408 2:-0.014 3:-0.014 4:5.385 
1 1:-0.408 2:0 3:0.046 4:6.325 
1 1:-0.454 2:-0.046 3:-0.004 4:6.708 
1 1:-0.496 2:-0.042 3:0.031 4:5.831 
1 1:-0.294 2:0.32 3:0.026 4:3.162 
1 1:0 2:0.294 3:0.084 4:2 
1 1:0.21 2:0.21 3:-0.011 4:1.414 
1 1:0.431 2:0.221 3:0.116 4:2 
1 1:0.537 2:0.105 3:0.107 4:2.236 
1 1:0.535 2:-0.002 3:0.097 4:2.828 
1 1:0.436 2:-0.099 3:0.143 4:3.162 
1 1:0.194 2:-0.242 3:0.055 4:4 
1 1:-0.103 2:-0.297 3:0.012 4:4.123 
1 1:-0.412 2:-0.309 3:-0.005 4:5.385 
1 1:0.919 2:0.025 3:0.049 4:3 
1 1:0.385 2:0.243 3:0.109 4:1.414 
1 1:0.519 2:0.134 3:0.016 4:1 
1 1:0.637 2:0.118 3:0.26 4:1 
1 1:0.495 2:-0.142 3:-0.142 4:1 
1 1:0.495 2:0 3:0.178 4:1.414 
1 1:0.316 2:-0.178 3:0.014 4:0 
1 1:-0.371 2:-0.495 3:0.082 4:2 
1 1:-0.451 2:0.189 3:-0.033 4:5 
1 1:-0.229 2:0.222 3:0.013 4:4.243 
1 1:-0.02 2:0.209 3:-0.011 4:3.606 
1 1:0.2 2:0.22 3:0.069 4:3.162 
1 1:0.351 2:0.151 3:0.146 4:2 
1 1:0.356 2:0.005 3:-0.128 4:1 
1 1:0.489 2:0.133 3:0.091 4:1 
1 1:0.532 2:0.042 3:0.182 4:2.236 
1 1:0.392 2:-0.14 3:-0.059 4:2.828 
1 1:0.311 2:-0.081 3:0.014 4:2.236 
1 1:0.217 2:-0.094 3:0.063 4:2 
1 1:0.059 2:-0.158 3:0.006 4:1.414 
1 1:-0.105 2:-0.164 3:0.11 4:2 
1 1:-0.379 2:-0.274 3:-0.08 4:2.236 
1 1:-0.374 2:0.209 3:0.229 4:0 
1 1:-0.394 2:-0.02 3:-0.083 4:1 
1 1:-0.331 2:0.063 3:0.044 4:2 
1 1:-0.311 2:0.019 3:-0.049 4:3 
1 1:-0.243 2:0.069 3:0.005 4:3.162 
1 1:-0.179 2:0.064 3:0.091 4:2.236 
1 1:-0.206 2:-0.027 3:-0.074 4:1.414 
1 1:-0.159 2:0.047 3:0.022 4:1 
1 1:-0.135 2:0.024 3:0.056 4:1.414 
1 1:-0.166 2:-0.031 3:0.171 4:2.828 
1 1:-0.368 2:-0.202 3:-0.116 4:3.606 
1 1:-0.454 2:-0.086 3:-0.169 4:5 
1 1:-0.371 2:0.083 3:0.197 4:6.403 
1 1:-0.486 2:-0.114 3:0 4:7.211 
1 1:-0.505 2:0.248 3:0.164 4:3.162 
1 1:-0.422 2:0.083 3:-0.171 4:3 
1 1:-0.167 2:0.255 3:0.171 4:4.123 
1 1:-0.083 2:0.084 3:-0.076 4:4.472 
1 1:0.077 2:0.16 3:0.134 4:5 
1 1:0.102 2:0.026 3:-0.089 4:4.243 
1 1:0.217 2:0.115 3:-0.024 4:3.606 
1 1:0.356 2:0.139 3:0.07 4:3.162 
1 1:0.425 2:0.069 3:0.063 4:3 
1 1:0.431 2:0.006 3:0.096 4:2.236 
1 1:0.342 2:-0.09 3:0.025 4:1.414 
1 1:0.227 2:-0.115 3:-0.159 4:2 
1 1:0.272 2:0.045 3:0.257 4:3.162 
1 1:0.06 2:-0.212 3:-0.076 4:3.606 
1 1:-0.077 2:-0.136 3:0.078 4:4.243 
1 1:-0.291 2:-0.214 3:-0.075 4:4.472 
1 1:-0.431 2:-0.14 3:0.111 4:5.385 
1 1:-0.481 2:0.309 3:-0.07 4:2.828 
1 1:-0.102 2:0.379 3:0.039 4:2.236 
1 1:0.237 2:0.339 3:0.011 4:2 
1 1:0.566 2:0.329 3:0.111 4:1.414 
1 1:0.783 2:0.217 3:0.163 4:2 
1 1:0.838 2:0.054 3:0.065 4:2.236 
1 1:0.827 2:-0.011 3:0.056 4:2.828 
1 1:0.759 2:-0.067 3:0.111 4:3.162 
1 1:0.581 2:-0.178 3:0.052 4:4 
1 1:0.351 2:-0.23 3:0.087 4:5.099 
1 1:0.034 2:-0.317 3:0.049 4:5.385 
1 1:-0.333 2:-0.367 3:-0.035 4:5.831 
1 1:-0.486 2:0.267 3:-0.095 4:2.828 
1 1:-0.124 2:0.362 3:0.037 4:2.236 
1 1:0.2 2:0.324 3:0.186 4:2 
1 1:0.338 2:0.138 3:0 4:1.414 
1 1:0.476 2:0.138 3:0.138 4:2 
1 1:0.476 2:0 3:0.132 4:2.236 
1 1:0.344 2:-0.132 3:0.055 4:2.236 
1 1:0.157 2:-0.187 3:0.145 4:3 
1 1:-0.176 2:-0.333 3:0.06 4:3.162 
1 1:-0.164 2:0.39 3:-0.037 4:1 
1 1:0.263 2:0.428 3:0.176 4:1 
1 1:0.514 2:0.251 3:0.141 4:1.414 
1 1:0.625 2:0.11 3:0.154 4:2.236 
1 1:0.581 2:-0.043 3:0.091 4:3 
1 1:0.447 2:-0.134 3:0.172 4:3.162 
1 1:0.141 2:-0.306 3:0.108 4:4.472 
1 1:-0.272 2:-0.414 3:-0.035 4:5 
1 1:-0.48 2:0.283 3:-0.041 4:4.243 
1 1:-0.156 2:0.324 3:-0.074 4:2.828 
1 1:0.243 2:0.398 3:0.104 4:2.236 
1 1:0.537 2:0.294 3:0.164 4:1 
1 1:0.667 2:0.13 3:0.116 4:1 
1 1:0.68 2:0.014 3:0.026 4:1.414 
1 1:0.668 2:-0.012 3:0.198 4:2.236 
1 1:0.458 2:-0.21 3:0.063 4:3 
1 1:0.185 2:-0.273 3:0.127 4:4.123 
1 1:-0.215 2:-0.4 3:0.017 4:4.472 
1 1:-0.458 2:0.144 3:0.078 4:20.025 
1 1:-0.392 2:0.066 3:0.005 4:19 
1 1:-0.331 2:0.061 3:0.285 4:18 
1 1:0 2:0.447 3:0.249 4:2.828 
1 1:0.199 2:0.199 3:-0.015 4:2.236 
1 1:0.412 2:0.214 3:0.292 4:2 
1 1:0.333 2:-0.079 3:0.115 4:1.414 
1 1:0.14 2:-0.194 3:0.178 4:2 
1 1:-0.232 2:-0.372 3:0.01 4:2.236 
1 1:-0.521 2:0.038 3:0.031 4:6.708 
1 1:-0.514 2:0.007 3:0.117 4:6.403 
1 1:-0.452 2:0.137 3:-0.096 4:2.236 
1 1:-0.22 2:0.233 3:0.33 4:2 
1 1:-0.316 2:-0.097 3:-0.11 4:1.414 
1 1:-0.303 2:0.013 3:0.144 4:2 
1 1:-0.433 2:-0.13 3:0.087 4:2.236 
1 1:-0.486 2:0.135 3:0.27 4:2.236 
1 1:-0.447 2:0.096 3:0.145 4:1.414 
1 1:-0.496 2:-0.049 3:-0.086 4:2.236 
1 1:-0.459 2:0.037 3:0.202 4:3.162 
1 1:-0.263 2:0.367 3:0.046 4:4.472 
1 1:0.059 2:0.322 3:0.117 4:4.243 
1 1:0.263 2:0.204 3:0.011 4:3.606 
1 1:0.456 2:0.193 3:0.142 4:3.162 
1 1:0.508 2:0.052 3:0.055 4:3 
1 1:0.505 2:-0.003 3:0.078 4:2.236 
1 1:0.424 2:-0.081 3:-0.064 4:2.236 
1 1:0.406 2:-0.017 3:0.216 4:3 
1 1:0.172 2:-0.234 3:0.039 4:3.162 
1 1:-0.101 2:-0.273 3:-0.015 4:3.606 
1 1:-0.359 2:-0.258 3:0.05 4:4.243 
1 1:-0.364 2:0.161 3:-0.076 4:5 
1 1:-0.128 2:0.237 3:0.019 4:4.472 
1 1:0.091 2:0.218 3:0.092 4:4.123 
1 1:0.217 2:0.126 3:0.087 4:3 
1 1:0.256 2:0.039 3:-0.115 4:2 
1 1:0.41 2:0.154 3:0.171 4:1.414 
1 1:0.394 2:-0.016 3:-0.054 4:2 
1 1:0.431 2:0.038 3:0.105 4:2.828 
1 1:0.364 2:-0.068 3:0.014 4:2.236 
1 1:0.281 2:-0.082 3:0.056 4:2 
1 1:0.144 2:-0.138 3:0.042 4:1.414 
1 1:-0.036 2:-0.179 3:0.062 4:1 
1 1:-0.277 2:-0.241 3:-0.039 4:2.236 
1 1:-0.479 2:-0.202 3:-0.079 4:2.828 
1 1:-0.496 2:0.098 3:0.095 4:2.236 
1 1:-0.493 2:0.003 3:-0.052 4:1.414 
1 1:-0.438 2:0.055 3:0.033 4:1 
1 1:-0.415 2:0.023 3:-0.041 4:1.414 
1 1:-0.351 2:0.064 3:-0.072 4:2.236 
1 1:-0.215 2:0.136 3:0.078 4:3.162 
1 1:-0.158 2:0.058 3:0.014 4:4.123 
1 1:-0.114 2:0.044 3:0.016 4:5.099 
1 1:-0.086 2:0.028 3:0.12 4:6.083 
1 1:-0.179 2:-0.093 3:-0.091 4:7.28 
1 1:-0.18 2:-0.001 3:-0.007 4:8.544 
1 1:-0.175 2:0.006 3:0.03 4:9.849 
1 1:-0.199 2:-0.025 3:0.015 4:10.296 
1 1:-0.239 2:-0.039 3:0.013 4:10.817 
1 1:-0.29 2:-0.052 3:0.08 4:11.402 
1 1:-0.423 2:-0.132 3:-0.009 4:12.042 
1 1:-0.484 2:0.167 3:0.167 4:2.236 
1 1:-0.484 2:0 3:0.033 4:1.414 
1 1:-0.516 2:-0.033 3:0.082 4:0 
1 1:0.643 2:-0.104 3:0.079 4:10.63 
1 1:-0.374 2:0.22 3:0.1 4:3 
1 1:-0.254 2:0.12 3:0.034 4:3.162 
1 1:-0.167 2:0.086 3:-0.004 4:3.606 
1 1:-0.077 2:0.091 3:-0.211 4:4.243 
1 1:0.225 2:0.302 3:0.286 4:4.243 
1 1:0.24 2:0.016 3:-0.08 4:3.606 
1 1:0.336 2:0.096 3:-0.015 4:3.162 
1 1:0.447 2:0.111 3:0.127 4:3 
1 1:0.431 2:-0.016 3:-0.01 4:2.236 
1 1:0.425 2:-0.006 3:0.022 4:2.236 
1 1:0.397 2:-0.028 3:0.163 4:3 
1 1:0.206 2:-0.191 3:-0.133 4:3.162 
1 1:0.148 2:-0.058 3:0.081 4:3.606 
1 1:0.008 2:-0.14 3:0.01 4:4.243 
1 1:-0.141 2:-0.15 3:0.2 4:5 
1 1:-0.491 2:-0.349 3:-0.287 4:5.385 
1 1:-0.496 2:0.338 3:-0.01 4:2.828 
1 1:-0.148 2:0.348 3:-0.037 4:2.236 
1 1:0.237 2:0.385 3:0.057 4:2 
1 1:0.566 2:0.329 3:0.111 4:1.414 
1 1:0.783 2:0.217 3:0.163 4:2 
1 1:0.838 2:0.054 3:0.065 4:2.236 
1 1:0.827 2:-0.011 3:0.056 4:2.828 
1 1:0.759 2:-0.067 3:-0.015 4:3.162 
1 1:0.707 2:-0.052 3:0.179 4:4 
1 1:0.476 2:-0.232 3:0.031 4:5.099 
1 1:0.213 2:-0.262 3:0.075 4:6.325 
1 1:-0.124 2:-0.337 3:-0.019 4:6.708 
1 1:-0.443 2:-0.319 3:0.029 4:7.211 
1 1:-0.518 2:0.02 3:-0.056 4:3.162 
1 1:-0.442 2:0.076 3:-0.093 4:2.236 
1 1:-0.273 2:0.169 3:0.19 4:1.414 
1 1:-0.294 2:-0.021 3:-0.073 4:1 
1 1:-0.243 2:0.052 3:-0.083 4:1.414 
1 1:-0.108 2:0.135 3:0.246 4:2.236 
1 1:-0.22 2:-0.112 3:-0.114 4:3.606 
1 1:-0.217 2:0.003 3:0.137 4:5 
1 1:-0.351 2:-0.134 3:-0.088 4:5.657 
1 1:-0.397 2:-0.046 3:0.108 4:6.403 
1 1:-0.447 2:0.204 3:-0.055 4:3.162 
1 1:0.759 2:-0.067 3:0.113 4:9.22 
1 1:0.579 2:-0.181 3:0.001 4:8.485 
1 1:0.397 2:-0.182 3:0.229 4:7.81 
1 1:-0.371 2:-0.358 3:-0.006 4:5 
1 1:-0.281 2:0.282 3:0.19 4:2.236 
1 1:-0.188 2:0.093 3:-0.005 4:2.828 
1 1:-0.091 2:0.098 3:-0.025 4:3.606 
1 1:0.032 2:0.123 3:0.096 4:3.606 
1 1:0.059 2:0.026 3:-0.147 4:2.828 
1 1:0.232 2:0.174 3:0.082 4:2.236 
1 1:0.323 2:0.091 3:0.098 4:2 
1 1:0.316 2:-0.007 3:-0.077 4:1.414 
1 1:0.386 2:0.07 3:0.229 4:2 
1 1:0.227 2:-0.159 3:0 4:2.236 
1 1:0.069 2:-0.158 3:0.017 4:2.828 
1 1:-0.107 2:-0.175 3:0.103 4:3.606 
1 1:-0.385 2:-0.278 3:-0.116 4:4.123 
1 1:-0.496 2:0.33 3:-0.024 4:2.828 
1 1:-0.141 2:0.355 3:-0.05 4:1.414 
1 1:0.263 2:0.405 3:0.054 4:1 
1 1:0.614 2:0.351 3:0.161 4:1 
1 1:0.804 2:0.19 3:0.194 4:1.414 
1 1:0.8 2:-0.004 3:0.028 4:2.236 
1 1:0.768 2:-0.032 3:0.093 4:2 
1 1:0.643 2:-0.125 3:0.139 4:1.414 
1 1:0.379 2:-0.264 3:0.115 4:2 
1 1:0 2:-0.379 3:0.04 4:2.236 
1 1:-0.419 2:-0.419 3:-0.098 4:2.828 
1 1:-0.509 2:0.183 3:0.061 4:11.18 
1 1:-0.386 2:0.122 3:0.244 4:10.296 
1 1:-0.509 2:-0.122 3:0.057 4:8.944 
1 1:-0.394 2:0.51 3:0.116 4:3.606 
1 1:-0.406 2:0.124 3:-0.086 4:4.243 
1 1:-0.196 2:0.21 3:0.104 4:3.606 
1 1:-0.091 2:0.106 3:-0.074 4:2.236 
1 1:0.089 2:0.18 3:0.101 4:2 
1 1:0.168 2:0.079 3:-0.024 4:1.414 
1 1:0.271 2:0.103 3:0.145 4:2 
1 1:0.228 2:-0.043 3:-0.032 4:2.236 
1 1:0.218 2:-0.01 3:0.066 4:2.828 
1 1:0.141 2:-0.076 3:0.012 4:3.606 
1 1:0.053 2:-0.089 3:0.137 4:4.472 
1 1:-0.173 2:-0.226 3:-0.09 4:5.099 
1 1:-0.309 2:-0.136 3:0.109 4:5.099 
1 1:-0.497 2:0.077 3:-0.003 4:2 
1 1:-0.418 2:0.079 3:0.124 4:2.236 
1 1:-0.463 2:-0.045 3:-0.071 4:2.828 
1 1:-0.437 2:0.026 3:-0.018 4:3.606 
1 1:-0.394 2:0.043 3:0.057 4:4.472 
1 1:-0.408 2:-0.014 3:-0.014 4:5.385 
1 1:-0.408 2:0 3:0.046 4:6.325 
1 1:-0.454 2:-0.046 3:-0.004 4:6.708 
1 1:-0.496 2:-0.042 3:0.031 4:5.831 
1 1:-0.294 2:0.32 3:0.026 4:3.162 
1 1:0 2:0.294 3:0.084 4:2 
1 1:0.21 2:0.21 3:-0.011 4:1.414 
1 1:0.431 2:0.221 3:0.116 4:2 
1 1:0.537 2:0.105 3:0.107 4:2.236 
1 1:0.535 2:-0.002 3:0.097 4:2.828 
1 1:0.436 2:-0.099 3:0.143 4:3.162 
1 1:0.194 2:-0.242 3:0.055 4:4 
1 1:-0.103 2:-0.297 3:0.012 4:4.123 
1 1:-0.412 2:-0.309 3:-0.005 4:5.385 
1 1:0.919 2:0.025 3:0.049 4:3 
1 1:0.385 2:0.243 3:0.109 4:1.414 
1 1:0.519 2:0.134 3:0.016 4:1 
1 1:0.637 2:0.118 3:0.26 4:1 
1 1:0.495 2:-0.142 3:-0.142 4:1 
1 1:0.495 2:0 3:0.178 4:1.414 
1 1:0.316 2:-0.178 3:0.014 4:0 
1 1:-0.371 2:-0.495 3:0.082 4:2 
1 1:-0.451 2:0.189 3:-0.033 4:5 
1 1:-0.229 2:0.222 3:0.013 4:4.243 
1 1:-0.02 2:0.209 3:-0.011 4:3.606 
1 1:0.2 2:0.22 3:0.069 4:3.162 
1 1:0.351 2:0.151 3:0.146 4:2 
1 1:0.356 2:0.005 3:-0.128 4:1 
1 1:0.489 2:0.133 3:0.091 4:1 
1 1:0.532 2:0.042 3:0.182 4:2.236 
1 1:0.392 2:-0.14 3:-0.059 4:2.828 
1 1:0.311 2:-0.081 3:0.014 4:2.236 
1 1:0.217 2:-0.094 3:0.063 4:2 
1 1:0.059 2:-0.158 3:0.006 4:1.414 
1 1:-0.105 2:-0.164 3:0.11 4:2 
1 1:-0.379 2:-0.274 3:-0.08 4:2.236 
1 1:-0.374 2:0.209 3:0.229 4:0 
1 1:-0.394 2:-0.02 3:-0.083 4:1 
1 1:-0.331 2:0.063 3:0.044 4:2 
1 1:-0.311 2:0.019 3:-0.049 4:3 
1 1:-0.243 2:0.069 3:0.005 4:3.162 
1 1:-0.179 2:0.064 3:0.091 4:2.236 
1 1:-0.206 2:-0.027 3:-0.074 4:1.414 
1 1:-0.159 2:0.047 3:0.022 4:1 
1 1:-0.135 2:0.024 3:0.056 4:1.414 
1 1:-0.166 2:-0.031 3:0.171 4:2.828 
1 1:-0.368 2:-0.202 3:-0.116 4:3.606 
1 1:-0.454 2:-0.086 3:-0.169 4:5 
1 1:-0.371 2:0.083 3:0.197 4:6.403 
1 1:-0.486 2:-0.114 3:0 4:7.211 
1 1:-0.505 2:0.248 3:0.164 4:3.162 
1 1:-0.422 2:0.083 3:-0.171 4:3 
1 1:-0.167 2:0.255 3:0.171 4:4.123 
1 1:-0.083 2:0.084 3:-0.076 4:4.472 
1 1:0.077 2:0.16 3:0.134 4:5 
1 1:0.102 2:0.026 3:-0.089 4:4.243 
1 1:0.217 2:0.115 3:-0.024 4:3.606 
1 1:0.356 2:0.139 3:0.07 4:3.162 
1 1:0.425 2:0.069 3:0.063 4:3 
1 1:0.431 2:0.006 3:0.096 4:2.236 
1 1:0.342 2:-0.09 3:0.025 4:1.414 
1 1:0.227 2:-0.115 3:-0.159 4:2 
1 1:0.272 2:0.045 3:0.257 4:3.162 
1 1:0.06 2:-0.212 3:-0.076 4:3.606 
1 1:-0.077 2:-0.136 3:0.078 4:4.243 
1 1:-0.291 2:-0.214 3:-0.075 4:4.472 
1 1:-0.431 2:-0.14 3:0.111 4:5.385 
1 1:-0.481 2:0.309 3:-0.07 4:2.828 
1 1:-0.102 2:0.379 3:0.039 4:2.236 
1 1:0.237 2:0.339 3:0.011 4:2 
1 1:0.566 2:0.329 3:0.111 4:1.414 
1 1:0.783 2:0.217 3:0.163 4:2 
1 1:0.838 2:0.054 3:0.065 4:2.236 
1 1:0.827 2:-0.011 3:0.056 4:2.828 
1 1:0.759 2:-0.067 3:0.111 4:3.162 
1 1:0.581 2:-0.178 3:0.052 4:4 
1 1:0.351 2:-0.23 3:0.087 4:5.099 
1 1:0.034 2:-0.317 3:0.049 4:5.385 
1 1:-0.333 2:-0.367 3:-0.035 4:5.831 
1 1:-0.518 2:0.02 3:-0.056 4:3.162 
1 1:-0.442 2:0.076 3:-0.093 4:2.236 
1 1:-0.273 2:0.169 3:0.19 4:1.414 
1 1:-0.294 2:-0.021 3:-0.073 4:1 
1 1:-0.243 2:0.052 3:-0.083 4:1.414 
1 1:-0.108 2:0.135 3:0.246 4:2.236 
1 1:-0.22 2:-0.112 3:-0.114 4:3.606 
1 1:-0.217 2:0.003 3:0.137 4:5 
1 1:-0.351 2:-0.134 3:-0.088 4:5.657 
1 1:-0.397 2:-0.046 3:0.108 4:6.403 
1 1:-0.447 2:0.204 3:-0.055 4:3.162 
1 1:0.759 2:-0.067 3:0.113 4:9.22 
1 1:0.579 2:-0.181 3:0.001 4:8.485 
1 1:0.397 2:-0.182 3:0.229 4:7.81 
1 1:-0.371 2:-0.358 3:-0.006 4:5 
1 1:-0.281 2:0.282 3:0.19 4:2.236 
1 1:-0.188 2:0.093 3:-0.005 4:2.828 
1 1:-0.091 2:0.098 3:-0.025 4:3.606 
1 1:0.032 2:0.123 3:0.096 4:3.606 
1 1:0.059 2:0.026 3:-0.147 4:2.828 
1 1:0.232 2:0.174 3:0.082 4:2.236 
1 1:0.323 2:0.091 3:0.098 4:2 
1 1:0.316 2:-0.007 3:-0.077 4:1.414 
1 1:0.386 2:0.07 3:0.229 4:2 
1 1:0.227 2:-0.159 3:0 4:2.236 
1 1:0.069 2:-0.158 3:0.017 4:2.828 
1 1:-0.107 2:-0.175 3:0.103 4:3.606 
1 1:-0.385 2:-0.278 3:-0.116 4:4.123 
1 1:-0.496 2:0.33 3:-0.024 4:2.828 
1 1:-0.141 2:0.355 3:-0.05 4:1.414 
1 1:0.263 2:0.405 3:0.054 4:1 
1 1:0.614 2:0.351 3:0.161 4:1 
1 1:0.804 2:0.19 3:0.194 4:1.414 
1 1:0.8 2:-0.004 3:0.028 4:2.236 
1 1:0.768 2:-0.032 3:0.093 4:2 
1 1:0.643 2:-0.125 3:0.139 4:1.414 
1 1:0.379 2:-0.264 3:0.115 4:2 
1 1:0 2:-0.379 3:0.04 4:2.236 
1 1:-0.419 2:-0.419 3:-0.098 4:2.828 
1 1:-0.509 2:0.183 3:0.061 4:11.18 
1 1:-0.386 2:0.122 3:0.244 4:10.296 
1 1:-0.509 2:-0.122 3:0.057 4:8.944 
1 1:-0.394 2:0.51 3:0.116 4:3.606 
1 1:-0.406 2:0.124 3:-0.086 4:4.243 
1 1:-0.196 2:0.21 3:0.104 4:3.606 
1 1:-0.091 2:0.106 3:-0.074 4:2.236 
1 1:0.089 2:0.18 3:0.101 4:2 
1 1:0.168 2:0.079 3:-0.024 4:1.414 
1 1:0.271 2:0.103 3:0.145 4:2 
1 1:0.228 2:-0.043 3:-0.032 4:2.236 
1 1:0.218 2:-0.01 3:0.066 4:2.828 
1 1:0.141 2:-0.076 3:0.012 4:3.606 
1 1:0.053 2:-0.089 3:0.137 4:4.472 
1 1:-0.173 2:-0.226 3:-0.09 4:5.099 
1 1:-0.309 2:-0.136 3:0.109 4:5.099 
1 1:-0.497 2:0.077 3:-0.003 4:2 
1 1:-0.418 2:0.079 3:0.124 4:2.236 
1 1:-0.463 2:-0.045 3:-0.071 4:2.828 
1 1:-0.437 2:0.026 3:-0.018 4:3.606 
1 1:-0.394 2:0.043 3:0.057 4:4.472 
1 1:-0.408 2:-0.014 3:-0.014 4:5.385 
1 1:-0.408 2:0 3:0.046 4:6.325 
1 1:-0.454 2:-0.046 3:-0.004 4:6.708 
1 1:-0.496 2:-0.042 3:0.031 4:5.831 
1 1:-0.294 2:0.32 3:0.026 4:3.162 
1 1:0 2:0.294 3:0.084 4:2 
1 1:0.21 2:0.21 3:-0.011 4:1.414 
1 1:0.431 2:0.221 3:0.116 4:2 
1 1:0.537 2:0.105 3:0.107 4:2.236 
1 1:0.535 2:-0.002 3:0.097 4:2.828 
1 1:0.436 2:-0.099 3:0.143 4:3.162 
1 1:0.194 2:-0.242 3:0.055 4:4 
1 1:-0.103 2:-0.297 3:0.012 4:4.123 
1 1:-0.412 2:-0.309 3:-0.005 4:5.385 
1 1:0.919 2:0.025 3:0.049 4:3 
1 1:0.385 2:0.243 3:0.109 4:1.414 
1 1:0.519 2:0.134 3:0.016 4:1 
1 1:0.637 2:0.118 3:0.26 4:1 
1 1:0.495 2:-0.142 3:-0.142 4:1 
1 1:0.495 2:0 3:0.178 4:1.414 
1 1:0.316 2:-0.178 3:0.014 4:0 
1 1:-0.371 2:-0.495 3:0.082 4:2 
1 1:-0.451 2:0.189 3:-0.033 4:5 
1 1:-0.229 2:0.222 3:0.013 4:4.243 
1 1:-0.02 2:0.209 3:-0.011 4:3.606 
1 1:0.2 2:0.22 3:0.069 4:3.162 
1 1:0.351 2:0.151 3:0.146 4:2 
1 1:0.356 2:0.005 3:-0.128 4:1 
1 1:0.489 2:0.133 3:0.091 4:1 
1 1:0.532 2:0.042 3:0.182 4:2.236 
1 1:0.392 2:-0.14 3:-0.059 4:2.828 
1 1:0.311 2:-0.081 3:0.014 4:2.236 
1 1:0.217 2:-0.094 3:0.063 4:2 
1 1:0.059 2:-0.158 3:0.006 4:1.414 
1 1:-0.105 2:-0.164 3:0.11 4:2 
1 1:-0.379 2:-0.274 3:-0.08 4:2.236 
1 1:-0.374 2:0.209 3:0.229 4:0 
1 1:-0.394 2:-0.02 3:-0.083 4:1 
1 1:-0.331 2:0.063 3:0.044 4:2 
1 1:-0.311 2:0.019 3:-0.049 4:3 
1 1:-0.243 2:0.069 3:0.005 4:3.162 
1 1:-0.179 2:0.064 3:0.091 4:2.236 
1 1:-0.206 2:-0.027 3:-0.074 4:1.414 
1 1:-0.159 2:0.047 3:0.022 4:1 
1 1:-0.135 2:0.024 3:0.056 4:1.414 
1 1:-0.166 2:-0.031 3:0.171 4:2.828 
1 1:-0.368 2:-0.202 3:-0.116 4:3.606 
1 1:-0.454 2:-0.086 3:-0.169 4:5 
1 1:-0.371 2:0.083 3:0.197 4:6.403 
1 1:-0.486 2:-0.114 3:0 4:7.211 
1 1:-0.505 2:0.248 3:0.164 4:3.162 
1 1:-0.422 2:0.083 3:-0.171 4:3 
1 1:-0.167 2:0.255 3:0.171 4:4.123 
1 1:-0.083 2:0.084 3:-0.076 4:4.472 
1 1:0.077 2:0.16 3:0.134 4:5 
1 1:0.102 2:0.026 3:-0.089 4:4.243 
1 1:0.217 2:0.115 3:-0.024 4:3.606 
1 1:0.356 2:0.139 3:0.07 4:3.162 
1 1:0.425 2:0.069 3:0.063 4:3 
1 1:0.431 2:0.006 3:0.096 4:2.236 
1 1:0.342 2:-0.09 3:0.025 4:1.414 
1 1:0.227 2:-0.115 3:-0.159 4:2 
1 1:0.272 2:0.045 3:0.257 4:3.162 
1 1:0.06 2:-0.212 3:-0.076 4:3.606 
1 1:-0.077 2:-0.136 3:0.078 4:4.243 
1 1:-0.291 2:-0.214 3:-0.075 4:4.472 
1 1:-0.431 2:-0.14 3:0.111 4:5.385 
1 1:-0.481 2:0.309 3:-0.07 4:2.828 
1 1:-0.102 2:0.379 3:0.039 4:2.236 
1 1:0.237 2:0.339 3:0.011 4:2 
1 1:0.566 2:0.329 3:0.111 4:1.414 
1 1:0.783 2:0.217 3:0.163 4:2 
1 1:0.838 2:0.054 3:0.065 4:2.236 
1 1:0.827 2:-0.011 3:0.056 4:2.828 
1 1:0.759 2:-0.067 3:0.111 4:3.162 
1 1:0.581 2:-0.178 3:0.052 4:4 
1 1:0.351 2:-0.23 3:0.087 4:5.099 
1 1:0.034 2:-0.317 3:0.049 4:5.385 
1 1:-0.333 2:-0.367 3:-0.035 4:5.831 
1 1:-0.486 2:0.267 3:-0.095 4:2.828 
1 1:-0.124 2:0.362 3:0.037 4:2.236 
1 1:0.2 2:0.324 3:0.186 4:2 
1 1:0.338 2:0.138 3:0 4:1.414 
1 1:0.476 2:0.138 3:0.138 4:2 
1 1:0.476 2:0 3:0.132 4:2.236 
1 1:0.344 2:-0.132 3:0.055 4:2.236 
1 1:0.157 2:-0.187 3:0.145 4:3 
1 1:-0.176 2:-0.333 3:0.06 4:3.162 
1 1:-0.164 2:0.39 3:-0.037 4:1 
1 1:0.263 2:0.428 3:0.176 4:1 
1 1:0.514 2:0.251 3:0.141 4:1.414 
1 1:0.625 2:0.11 3:0.154 4:2.236 
1 1:0.581 2:-0.043 3:0.091 4:3 
1 1:0.447 2:-0.134 3:0.172 4:3.162 
1 1:0.141 2:-0.306 3:0.108 4:4.472 
1 1:-0.272 2:-0.414 3:-0.035 4:5 
1 1:-0.48 2:0.283 3:-0.041 4:4.243 
1 1:-0.156 2:0.324 3:-0.074 4:2.828 
1 1:0.243 2:0.398 3:0.104 4:2.236 
1 1:0.537 2:0.294 3:0.164 4:1 
1 1:0.667 2:0.13 3:0.116 4:1 
1 1:0.68 2:0.014 3:0.026 4:1.414 
1 1:0.668 2:-0.012 3:0.198 4:2.236 
1 1:0.458 2:-0.21 3:0.063 4:3 
1 1:0.185 2:-0.273 3:0.127 4:4.123 
1 1:-0.215 2:-0.4 3:0.017 4:4.472 
1 1:-0.458 2:0.144 3:0.078 4:20.025 
1 1:-0.392 2:0.066 3:0.005 4:19 
1 1:-0.331 2:0.061 3:0.285 4:18 
1 1:0 2:0.447 3:0.249 4:2.828 
1 1:0.199 2:0.199 3:-0.015 4:2.236 
1 1:0.412 2:0.214 3:0.292 4:2 
1 1:0.333 2:-0.079 3:0.115 4:1.414 
1 1:0.14 2:-0.194 3:0.178 4:2 
1 1:-0.232 2:-0.372 3:0.01 4:2.236 
1 1:-0.521 2:0.038 3:0.031 4:6.708 
1 1:-0.514 2:0.007 3:0.117 4:6.403 
1 1:-0.452 2:0.137 3:-0.096 4:2.236 
1 1:-0.22 2:0.233 3:0.33 4:2 
1 1:-0.316 2:-0.097 3:-0.11 4:1.414 
1 1:-0.303 2:0.013 3:0.144 4:2 
1 1:-0.433 2:-0.13 3:0.087 4:2.236 
1 1:-0.486 2:0.135 3:0.27 4:2.236 
1 1:-0.447 2:0.096 3:0.145 4:1.414 
1 1:-0.496 2:-0.049 3:-0.086 4:2.236 
1 1:-0.459 2:0.037 3:0.202 4:3.162 
1 1:-0.263 2:0.367 3:0.046 4:4.472 
1 1:0.059 2:0.322 3:0.117 4:4.243 
1 1:0.263 2:0.204 3:0.011 4:3.606 
1 1:0.456 2:0.193 3:0.142 4:3.162 
1 1:0.508 2:0.052 3:0.055 4:3 
1 1:0.505 2:-0.003 3:0.078 4:2.236 
1 1:0.424 2:-0.081 3:-0.064 4:2.236 
1 1:0.406 2:-0.017 3:0.216 4:3 
1 1:0.172 2:-0.234 3:0.039 4:3.162 
1 1:-0.101 2:-0.273 3:-0.015 4:3.606 
1 1:-0.359 2:-0.258 3:0.05 4:4.243 
1 1:-0.401 2:0.338 3:0.166 4:5.385 
1 1:-0.229 2:0.172 3:-0.162 4:4.472 
1 1:0.105 2:0.334 3:0.093 4:4.243 
1 1:0.346 2:0.241 3:0.14 4:3.606 
1 1:0.447 2:0.102 3:0.167 4:3.162 
1 1:0.381 2:-0.066 3:0.023 4:2 
1 1:0.293 2:-0.089 3:0.105 4:1.414 
1 1:0.1 2:-0.193 3:0.123 4:2 
1 1:-0.217 2:-0.316 3:-0.182 4:2.236 
1 1:-0.351 2:-0.134 3:0.228 4:2.828 
1 1:-0.1 2:0.447 3:-0.062 4:3 
1 1:0.409 2:0.509 3:0.338 4:2.236 
1 1:0.58 2:0.171 3:0.028 4:1.414 
1 1:0.723 2:0.143 3:0.052 4:1 
1 1:0.814 2:0.091 3:0.116 4:1 
1 1:0.789 2:-0.025 3:0.057 4:1.414 
1 1:0.707 2:-0.082 3:0.246 4:2.236 
1 1:0.379 2:-0.328 3:0.05 4:3 
1 1:0 2:-0.379 3:0.161 4:4.123 
1 1:-0.382 2:0.191 3:-0.044 4:6.083 
1 1:-0.147 2:0.236 3:-0.009 4:5.385 
1 1:0.098 2:0.244 3:0.092 4:5 
1 1:0.25 2:0.152 3:0.071 4:5 
1 1:0.331 2:0.081 3:0.072 4:4.472 
1 1:0.339 2:0.009 3:0.056 4:4.123 
1 1:0.292 2:-0.047 3:0.026 4:3 
1 1:0.219 2:-0.073 3:0.048 4:2.236 
1 1:0.098 2:-0.121 3:-0.024 4:2.236 
1 1:0 2:-0.098 3:0.119 4:3 
1 1:-0.217 2:-0.217 3:0.013 4:3.162 
1 1:-0.447 2:-0.23 3:-0.105 4:3.606 
1 1:-0.429 2:0.348 3:0.115 4:1 
1 1:-0.196 2:0.233 3:0.019 4:2.236 
1 1:0.018 2:0.214 3:0.158 4:2.828 
1 1:0.073 2:0.055 3:0.004 4:3.162 
1 1:0.124 2:0.051 3:0.221 4:3 
1 1:-0.045 2:-0.169 3:0.028 4:2.236 
1 1:-0.243 2:-0.197 3:0.075 4:2.236 
1 1:-0.514 2:-0.272 3:-0.064 4:2 
1 1:-0.488 2:0.117 3:0.01 4:2.828 
1 1:-0.381 2:0.107 3:0.097 4:2.236 
1 1:-0.371 2:0.01 3:-0.098 4:1 
1 1:-0.263 2:0.108 3:0.137 4:1 
1 1:-0.292 2:-0.029 3:-0.061 4:1.414 
1 1:-0.26 2:0.032 3:0.088 4:2.236 
1 1:-0.316 2:-0.056 3:0.095 4:3.162 
1 1:-0.468 2:-0.152 3:-0.123 4:4 
1 1:-0.496 2:-0.028 3:-0.051 4:5 
1 1:-0.473 2:0.023 3:0.029 4:5.831 
1 1:-0.48 2:-0.006 3:-0.017 4:5.385 
1 1:-0.469 2:0.01 3:0.056 4:5.099 
1 1:-0.514 2:-0.045 3:0.054 4:5 
1 1:-0.428 2:0.22 3:-0.329 4:4.123 
1 1:0.12 2:0.548 3:0.235 4:3 
1 1:0.433 2:0.313 3:0.082 4:2.236 
1 1:0.664 2:0.231 3:0.206 4:2.236 
1 1:0.689 2:0.025 3:0.181 4:2 
1 1:0.534 2:-0.155 3:-0.013 4:1.414 
1 1:0.391 2:-0.143 3:0.032 4:2 
1 1:0.217 2:-0.174 3:0.167 4:2.236 
1 1:-0.124 2:-0.341 3:0.063 4:2.828 
1 1:-0.405 2:0.189 3:0.047 4:1.414 
1 1:-0.263 2:0.142 3:0.099 4:1 
1 1:-0.22 2:0.043 3:0.04 4:1.414 
1 1:-0.217 2:0.003 3:0.099 4:2.828 
1 1:-0.313 2:-0.096 3:-0.116 4:2.236 
1 1:-0.293 2:0.02 3:0.015 4:2 
1 1:-0.287 2:0.005 3:-0.005 4:1.414 
1 1:-0.277 2:0.01 3:0.129 4:2 
1 1:-0.396 2:-0.119 3:0.002 4:2.236 
1 1:-0.517 2:-0.121 3:0.121 4:2.828 
1 1:-0.483 2:0.23 3:0.084 4:6.708 
1 1:-0.338 2:0.146 3:0.124 4:5.831 
1 1:-0.316 2:0.022 3:0.009 4:4.472 
1 1:-0.303 2:0.013 3:0.101 4:3.606 
1 1:-0.391 2:-0.088 3:-0.088 4:2.236 
1 1:-0.391 2:0 3:0.08 4:1.414 
1 1:-0.472 2:-0.08 3:0.131 4:0 
1 1:-0.348 2:0.359 3:-0.066 4:5.099 
1 1:0.077 2:0.425 3:0.242 4:4 
1 1:0.259 2:0.182 3:-0.132 4:3 
1 1:0.573 2:0.314 3:0.215 4:2.236 
1 1:0.673 2:0.099 3:0.024 4:1.414 
1 1:0.747 2:0.075 3:0.115 4:0 
1 1:0.707 2:-0.04 3:0.112 4:1 
1 1:0.555 2:-0.152 3:0.031 4:2 
1 1:0.371 2:-0.183 3:0.218 4:3 
1 1:-0.03 2:-0.402 3:0.008 4:4 
1 1:-0.44 2:-0.41 3:0.044 4:5 
1 1:-0.476 2:0.32 3:0.154 4:6.325 
1 1:-0.309 2:0.166 3:-0.004 4:5.385 
1 1:-0.138 2:0.171 3:-0.102 4:4.472 
1 1:0.135 2:0.273 3:0.037 4:3.606 
1 1:0.371 2:0.236 3:0.216 4:2.828 
1 1:0.391 2:0.02 3:0.027 4:1.414 
1 1:0.385 2:-0.007 3:0.182 4:1 
1 1:0.196 2:-0.188 3:0.019 4:1 
1 1:-0.011 2:-0.207 3:0.133 4:1.414 
1 1:-0.351 2:-0.34 3:0.1 4:2.236 
1 1:0.223 2:0.347 3:0.002 4:3.162 
1 1:0.568 2:0.345 3:0.154 4:2.236 
1 1:0.759 2:0.191 3:0.118 4:1.414 
1 1:0.832 2:0.073 3:0.059 4:0 
1 1:0.845 2:0.013 3:0.016 4:1 
1 1:0.843 2:-0.002 3:0.112 4:2 
1 1:0.729 2:-0.114 3:0.026 4:3.162 
1 1:0.589 2:-0.14 3:0.178 4:4.472 
1 1:0.271 2:-0.318 3:0.135 4:5.831 
1 1:-0.183 2:-0.453 3:-0.137 4:6.403 
1 1:-0.499 2:-0.316 3:-0.025 4:7.81 
1 1:-0.513 2:0.109 3:-0.007 4:6.403 
1 1:-0.397 2:0.116 3:0.005 4:5.657 
1 1:-0.286 2:0.111 3:0.021 4:5 
1 1:-0.196 2:0.09 3:-0.016 4:3.606 
1 1:-0.091 2:0.106 3:0.106 4:3.162 
1 1:-0.091 2:0 3:-0.091 4:2 
1 1:0 2:0.091 3:0.116 4:1.414 
1 1:-0.025 2:-0.025 3:-0.133 4:1 
1 1:0.083 2:0.108 3:0.158 4:2.236 
1 1:0.033 2:-0.05 3:0.091 4:2.828 
1 1:-0.108 2:-0.141 3:-0.124 4:3.606 
1 1:-0.125 2:-0.017 3:0.054 4:4.472 
1 1:-0.196 2:-0.071 3:0.072 4:5.385 
1 1:-0.339 2:-0.143 3:0.022 4:5.831 
1 1:-0.505 2:-0.166 3:-0.174 4:4.472 
1 1:-0.497 2:0.008 3:0.048 4:4.123 
1 1:-0.447 2:0.26 3:-0.187 4:4.472 
1 1:0 2:0.447 3:0 4:3.606 
1 1:0.447 2:0.447 3:0.187 4:2.828 
1 1:0.707 2:0.26 3:0.199 4:2.236 
1 1:0.768 2:0.061 3:0.07 4:2 
1 1:0.759 2:-0.009 3:0.053 4:2.236 
1 1:0.336 2:-0.291 3:0.128 4:1 
1 1:-0.083 2:-0.419 3:0.205 4:1 
1 1:-0.309 2:0.245 3:0.109 4:1.414 
1 1:-0.173 2:0.136 3:-0.166 4:1 
1 1:0.129 2:0.302 3:0.115 4:2.236 
1 1:0.316 2:0.187 3:0.11 4:2.828 
1 1:0.394 2:0.078 3:-0.061 4:3.606 
1 1:0.532 2:0.138 3:0.128 4:3.606 
1 1:0.543 2:0.011 3:-0.068 4:2.236 
1 1:0.623 2:0.079 3:0.088 4:2 
1 1:0.614 2:-0.009 3:0.032 4:1.414 
1 1:0.573 2:-0.04 3:0.074 4:2 
1 1:0.459 2:-0.114 3:0.036 4:2.236 
1 1:0.309 2:-0.15 3:-0.014 4:2.828 
1 1:0.173 2:-0.136 3:0.166 4:3.606 
1 1:-0.129 2:-0.302 3:-0.012 4:4.123 
1 1:-0.419 2:-0.29 3:-0.166 4:5 
1 1:0.092 2:0.163 3:0.047 4:2.236 
1 1:0.208 2:0.116 3:0.044 4:1.414 
1 1:0.28 2:0.072 3:0.17 4:0 
1 1:0.182 2:-0.098 3:0.029 4:1 
1 1:0.055 2:-0.127 3:0.093 4:1.414 
1 1:-0.351 2:0.201 3:0.159 4:2 
1 1:-0.309 2:0.042 3:0.013 4:1 
1 1:-0.28 2:0.029 3:0.209 4:0 
1 1:-0.459 2:-0.179 3:0.157 4:1 
1 1:-0.253 2:0.273 3:-0.054 4:6.325 
1 1:0.074 2:0.327 3:0.122 4:5.385 
1 1:0.28 2:0.206 3:-0.007 4:4.123 
1 1:0.492 2:0.212 3:0.136 4:3.162 
1 1:0.569 2:0.077 3:-0.021 4:2.236 
1 1:0.667 2:0.098 3:0.043 4:1.414 
1 1:0.721 2:0.054 3:0.042 4:0 
1 1:0.733 2:0.012 3:0.098 4:1.414 
1 1:0.646 2:-0.086 3:0.064 4:2.828 
1 1:0.496 2:-0.15 3:0.066 4:4.243 
1 1:0.28 2:-0.216 3:0.079 4:5.657 
1 1:-0.015 2:-0.295 3:0.029 4:6.403 
1 1:-0.338 2:-0.323 3:-0.135 4:7.211 
1 1:-0.423 2:0.224 3:0.038 4:5 
1 1:-0.237 2:0.186 3:-0.119 4:4 
1 1:0.068 2:0.305 3:0.051 4:3.162 
1 1:0.321 2:0.253 3:0.08 4:2.828 
1 1:0.495 2:0.173 3:0.236 4:2.236 
1 1:0.431 2:-0.063 3:0.011 4:1 
1 1:0.358 2:-0.074 3:-0.163 4:0 
1 1:0.447 2:0.089 3:0.22 4:1.414 
1 1:0.316 2:-0.131 3:-0.112 4:2.236 
1 1:0.298 2:-0.019 3:0.073 4:3.162 
1 1:0.206 2:-0.092 3:0.114 4:4.123 
1 1:0 2:-0.206 3:-0.133 4:5 
1 1:-0.073 2:-0.073 3:0.035 4:5.657 
1 1:-0.181 2:-0.108 3:0.068 4:5 
1 1:-0.356 2:-0.175 3:-0.077 4:3.606 
1 1:-0.454 2:-0.098 3:-0.048 4:2.236 
1 1:-0.504 2:-0.05 3:0.022 4:2 
1 1:0.083 2:0.3 3:0.093 4:8.544 
1 1:-0.434 2:0.247 3:-0.012 4:1.414 
1 1:-0.175 2:0.259 3:0.167 4:1 
1 1:-0.082 2:0.092 3:0.042 4:1 
1 1:-0.032 2:0.051 3:0.088 4:1.414 
1 1:-0.069 2:-0.038 3:-0.038 4:2.236 
1 1:-0.135 2:0.585 3:0.081 4:3.162 
1 1:0.368 2:0.503 3:0.303 4:2.236 
1 1:0.569 2:0.201 3:0.073 4:1.414 
1 1:0.697 2:0.128 3:0.106 4:1 
1 1:0.719 2:0.022 3:0.104 4:1 
1 1:0.638 2:-0.082 3:0.021 4:1.414 
1 1:0.535 2:-0.103 3:0.096 4:1.414 
1 1:0.336 2:-0.199 3:0.192 4:0 
1 1:-0.054 2:-0.391 3:0.054 4:1 
1 1:-0.499 2:-0.444 3:-0.011 4:2 
1 1:-0.496 2:0.118 3:-0.09 4:6.708 
1 1:-0.288 2:0.208 3:0.071 4:5.831 
1 1:-0.151 2:0.137 3:0.003 4:5 
1 1:-0.018 2:0.134 3:0.116 4:4.243 
1 1:0 2:0.018 3:-0.073 4:2.828 
1 1:0.091 2:0.091 3:0.006 4:2.236 
1 1:0.175 2:0.084 3:0.108 4:1 
1 1:0.151 2:-0.024 3:0.008 4:0 
1 1:0.119 2:-0.032 3:0.027 4:1.414 
1 1:0.06 2:-0.059 3:0.015 4:2.236 
1 1:-0.015 2:-0.074 3:-0.036 4:3.162 
1 1:-0.053 2:-0.038 3:0.185 4:4.123 
1 1:-0.276 2:-0.223 3:-0.19 4:5 
1 1:-0.309 2:-0.034 3:0.167 4:6 
1 1:-0.51 2:-0.201 3:-0.086 4:7.071 
1 1:0.243 2:0.421 3:0.126 4:2.236 
1 1:0.538 2:0.296 3:0.094 4:1.414 
1 1:0.74 2:0.202 3:0.134 4:0 
1 1:0.807 2:0.067 3:0.132 4:1 
1 1:0.742 2:-0.065 3:-0.03 4:2.236 
1 1:0.707 2:-0.035 3:0.103 4:2.828 
1 1:0.569 2:-0.138 3:0.235 4:3.606 
1 1:0.196 2:-0.373 3:0.27 4:4.472 
1 1:-0.447 2:-0.643 3:-0.12 4:5.099 
1 1:-0.442 2:0.158 3:-0.021 4:2.236 
1 1:-0.263 2:0.179 3:-0.139 4:1 
1 1:0.055 2:0.319 3:0.215 4:0 
1 1:0.159 2:0.104 3:-0.012 4:1 
1 1:-0.316 2:0.391 3:-0.041 4:2.828 
1 1:0.116 2:0.432 3:0.106 4:2.236 
1 1:0.442 2:0.326 3:0.104 4:2 
1 1:0.664 2:0.222 3:0.141 4:1.414 
1 1:0.746 2:0.081 3:0.081 4:2 
1 1:0.746 2:0 3:0.081 4:2.236 
1 1:0.664 2:-0.081 3:0.141 4:2.236 
1 1:0.442 2:-0.222 3:0.151 4:3 
1 1:0.069 2:-0.373 3:0.06 4:4.123 
1 1:-0.364 2:-0.433 3:0.034 4:4.472 
1 1:-0.447 2:0.27 3:0.159 4:2.236 
1 1:-0.336 2:0.111 3:0.298 4:1.414 
1 1:-0.523 2:-0.187 3:0.071 4:0 
1 1:-0.367 2:0.173 3:0.005 4:1 
1 1:-0.199 2:0.168 3:0.228 4:1 
1 1:-0.259 2:-0.06 3:0.011 4:1.414 
1 1:-0.33 2:-0.071 3:0.205 4:2.236 
1 1:-0.496 2:0.15 3:0.067 4:5.385 
1 1:-0.414 2:0.082 3:-0.104 4:4.472 
1 1:-0.227 2:0.187 3:-0.007 4:3.606 
1 1:-0.033 2:0.194 3:-0.082 4:2.828 
1 1:0.243 2:0.276 3:0.276 4:2.236 
1 1:0.243 2:0 3:0.026 4:1 
1 1:0.217 2:-0.026 3:-0.022 4:1 
1 1:0.214 2:-0.003 3:0.09 4:1.414 
1 1:0.12 2:-0.093 3:-0.05 4:2.236 
1 1:0.077 2:-0.044 3:0.004 4:3.162 
1 1:0.029 2:-0.047 3:0.259 4:4.123 
1 1:-0.277 2:-0.306 3:-0.135 4:4.472 
1 1:-0.447 2:-0.171 3:-0.05 4:4.243 
1 1:-0.48 2:0.352 3:-0.008 4:2.236 
1 1:-0.12 2:0.36 3:0.08 4:2 
1 1:0.159 2:0.28 3:0.18 4:1.414 
1 1:0.259 2:0.099 3:0.169 4:2 
1 1:0.188 2:-0.07 3:-0.002 4:2.236 
1 1:0.12 2:-0.068 3:0.129 4:2.828 
1 1:-0.077 2:-0.197 3:0.281 4:3.606 
1 1:-0.394 2:0.26 3:0.108 4:1.414 
1 1:-0.243 2:0.151 3:0.27 4:1 
1 1:-0.361 2:-0.118 3:0.115 4:1 
1 1:-0.124 2:0.825 3:0.329 4:3 
1 1:0.371 2:0.495 3:0.16 4:2 
1 1:0.707 2:0.336 3:0.243 4:1 
1 1:0.8 2:0.093 3:0.071 4:0 
1 1:0.822 2:0.022 3:0.223 4:1 
1 1:0.622 2:-0.2 3:0.137 4:2.236 
1 1:0.284 2:-0.338 3:0.347 4:2.828 
1 1:-0.401 2:-0.685 3:-0.087 4:3.606 
1 1:-0.447 2:0.26 3:0.144 4:7.28 
1 1:-0.331 2:0.116 3:-0.005 4:6.325 
1 1:-0.21 2:0.122 3:0.017 4:5.385 
1 1:-0.105 2:0.105 3:0.033 4:4.472 
1 1:-0.033 2:0.071 3:-0.082 4:3.606 
1 1:0.12 2:0.154 3:0.274 4:2.828 
1 1:0 2:-0.12 3:-0.103 4:1.414 
1 1:-0.018 2:-0.018 3:0.298 4:1 
1 1:-0.333 2:-0.315 3:-0.231 4:1.414 
1 1:-0.417 2:-0.084 3:0.106 4:2.236 
1 1:-0.091 2:0.456 3:0.275 4:1.414 
1 1:0.091 2:0.181 3:0.107 4:1 
1 1:0.164 2:0.074 3:0.148 4:0 
1 1:0.091 2:-0.074 3:0.107 4:1 
1 1:-0.091 2:-0.181 3:0.083 4:1.414 
1 1:-0.355 2:-0.264 3:0.229 4:2.236 
1 1:-0.192 2:0.336 3:0.066 4:3.606 
1 1:0.077 2:0.269 3:-0.068 4:2.236 
1 1:0.414 2:0.337 3:0.283 4:1.414 
1 1:0.468 2:0.054 3:0.054 4:0 
1 1:0.468 2:0 3:0.054 4:1 
1 1:0.414 2:-0.054 3:0.143 4:2.236 
1 1:0.217 2:-0.197 3:0.068 4:3.606 
1 1:-0.048 2:-0.264 3:-0.027 4:4.243 
1 1:-0.285 2:-0.238 3:0.093 4:5.657 
1 1:-0.28 2:0.469 3:-0.071 4:4 
1 1:0.26 2:0.54 3:0.2 4:3.162 
1 1:0.6 2:0.34 3:0.197 4:2.236 
1 1:0.743 2:0.143 3:0.053 4:1.414 
1 1:0.832 2:0.089 3:0.011 4:1 
1 1:0.91 2:0.078 3:0.101 4:1 
1 1:0.888 2:-0.023 3:0.116 4:1.414 
1 1:0.749 2:-0.138 3:0.251 4:2.236 
1 1:-0.227 2:0.532 3:0.042 4:4.123 
1 1:0.263 2:0.49 3:0.349 4:3 
1 1:0.405 2:0.142 3:0.126 4:2.236 
1 1:0.421 2:0.016 3:0.222 4:1.414 
1 1:0.215 2:-0.206 3:0.01 4:0 
1 1:0 2:-0.215 3:0.232 4:1 
1 1:-0.404 2:0.21 3:0.002 4:3.162 
1 1:-0.196 2:0.208 3:-0.009 4:3 
1 1:0.021 2:0.217 3:0.112 4:2.236 
1 1:0.126 2:0.105 3:0.026 4:2.236 
1 1:0.206 2:0.08 3:0.075 4:3 
1 1:0.21 2:0.004 3:0.007 4:3.162 
1 1:0.207 2:-0.003 3:0.214 4:3.606 
1 1:-0.01 2:-0.217 3:-0.125 4:3.606 
1 1:-0.102 2:-0.092 3:-0.048 4:4.472 
1 1:-0.147 2:-0.044 3:0.237 4:4.123 
1 1:-0.428 2:-0.282 3:-0.051 4:3 
1 1:-0.454 2:0.155 3:0.108 4:5 
1 1:-0.408 2:0.046 3:0.046 4:5.831 
1 1:-0.408 2:0 3:0.186 4:6.708 
1 1:-0.277 2:0.374 3:0.052 4:2.236 
1 1:0.045 2:0.322 3:0.045 4:1.414 
1 1:0.322 2:0.277 3:0.24 4:0 
1 1:0.447 2:0.088 3:0.088 4:2 
1 1:0.447 2:0 3:0.046 4:3 
1 1:0.401 2:-0.046 3:0.23 4:4 
1 1:0.124 2:-0.277 3:0.064 4:5.099 
1 1:-0.217 2:-0.341 3:-0.043 4:5.385 
1 1:-0.514 2:-0.298 3:-0.005 4:6.708 
1 1:-0.356 2:0.216 3:-0.021 4:4.243 
1 1:-0.119 2:0.237 3:0.019 4:3.606 
1 1:0.1 2:0.218 3:0.101 4:3.162 
1 1:0.217 2:0.117 3:0.089 4:2 
1 1:0.246 2:0.029 3:-0.117 4:1 
1 1:0.391 2:0.145 3:0.089 4:1 
1 1:0.447 2:0.056 3:0.214 4:2.236 
1 1:0.289 2:-0.158 3:-0.069 4:2.828 
1 1:0.2 2:-0.089 3:0.013 4:3.162 
1 1:0.098 2:-0.102 3:0.072 4:3 
1 1:-0.077 2:-0.174 3:-0.009 4:2.236 
1 1:-0.243 2:-0.166 3:0.106 4:2.236 
1 1:-0.514 2:-0.272 3:-0.156 4:2 
1 1:-0.394 2:0.146 3:0.075 4:3.162 
1 1:-0.323 2:0.071 3:0.011 4:2.236 
1 1:-0.263 2:0.06 3:0.017 4:1.414 
1 1:-0.22 2:0.043 3:0.013 4:1 
1 1:-0.191 2:0.03 3:0.035 4:1.414 
1 1:-0.196 2:-0.006 3:-0.006 4:2.828 
1 1:-0.196 2:0 3:-0.006 4:4.243 
1 1:-0.191 2:0.006 3:0.262 4:5.657 
1 1:-0.447 2:-0.257 3:-0.123 4:5.831 
1 1:-0.059 2:-0.084 3:-0.041 4:0 
1 1:-0.102 2:-0.043 3:0.118 4:1 
1 1:-0.263 2:-0.161 3:-0.043 4:2 
1 1:-0.381 2:-0.118 3:0.289 4:3 
1 1:-0.523 2:0.091 3:-0.099 4:3 
1 1:-0.333 2:0.19 3:0.11 4:4.123 
1 1:-0.252 2:0.08 3:0.058 4:4.472 
1 1:-0.23 2:0.023 3:-0.065 4:4.472 
1 1:-0.141 2:0.088 3:-0.041 4:3.606 
1 1:-0.012 2:0.129 3:-0.024 4:2.828 
1 1:0.141 2:0.153 3:0.018 4:3.162 
1 1:0.277 2:0.136 3:0.12 4:3 
1 1:0.293 2:0.016 3:0.112 4:2.236 
1 1:0.196 2:-0.097 3:-0.167 4:1.414 
1 1:0.267 2:0.07 3:0.12 4:2 
1 1:0.217 2:-0.05 3:0.091 4:3.162 
1 1:0.077 2:-0.14 3:-0.054 4:3.606 
1 1:-0.01 2:-0.086 3:0.078 4:4.243 
1 1:-0.174 2:-0.164 3:0.151 4:5 
1 1:-0.489 2:-0.315 3:-0.209 4:5.385 
1 1:-0.481 2:0.319 3:-0.103 4:2.236 
1 1:-0.059 2:0.422 3:0.054 4:1.414 
1 1:0.309 2:0.368 3:0.137 4:1 
1 1:0.54 2:0.231 3:0.057 4:1 
1 1:0.713 2:0.173 3:0.11 4:1.414 
1 1:0.776 2:0.063 3:0.071 4:2.236 
1 1:0.768 2:-0.008 3:0.047 4:2.236 
1 1:0.713 2:-0.055 3:0.017 4:2 
1 1:0.641 2:-0.072 3:0.237 4:1.414 
1 1:0.333 2:-0.309 3:-0.031 4:1 
1 1:0.055 2:-0.277 3:0.079 4:2.236 
1 1:-0.301 2:-0.356 3:0.065 4:2.828 
1 1:-0.309 2:0.342 3:0.022 4:5.099 
1 1:0.012 2:0.321 3:0.09 4:4 
1 1:0.243 2:0.23 3:0.094 4:3.162 
1 1:0.379 2:0.136 3:0.057 4:2.828 
1 1:0.458 2:0.079 3:0.083 4:2.236 
1 1:0.454 2:-0.003 3:0.135 4:2 
1 1:0.316 2:-0.138 3:0.123 4:1.414 
1 1:0.055 2:-0.261 3:0.054 4:2 
1 1:-0.259 2:-0.315 3:0 4:2.236 
1 1:-0.353 2:0.201 3:-0.028 4:5.657 
1 1:-0.124 2:0.229 3:0.216 4:5 
1 1:-0.11 2:0.014 3:-0.207 4:3.606 
1 1:0.11 2:0.221 3:0.075 4:3.162 
1 1:0.256 2:0.146 3:0.159 4:2 
1 1:0.243 2:-0.014 3:-0.087 4:1 
1 1:0.316 2:0.074 3:0.031 4:1 
1 1:0.359 2:0.043 3:0.12 4:2.236 
1 1:0.282 2:-0.077 3:0.031 4:2.828 
1 1:0.174 2:-0.108 3:0.118 4:3.606 
1 1:-0.052 2:-0.226 3:-0.061 4:4.123 
1 1:-0.217 2:-0.165 3:-0.036 4:5 
1 1:-0.346 2:-0.129 3:0.132 4:6.083 
1 1:-0.468 2:0.107 3:0.033 4:1.414 
1 1:-0.394 2:0.074 3:-0.082 4:2.236 
1 1:-0.237 2:0.156 3:0.09 4:3.162 
1 1:-0.171 2:0.066 3:0.114 4:2.236 
1 1:-0.219 2:-0.048 3:-0.076 4:1.414 
1 1:-0.191 2:0.028 3:0.034 4:1 
1 1:-0.196 2:-0.006 3:-0.004 4:2.236 
1 1:-0.198 2:-0.002 3:0.087 4:3.606 
1 1:-0.287 2:-0.089 3:0.029 4:5 
1 1:-0.406 2:-0.119 3:0.056 4:5.831 
1 1:-0.273 2:0.174 3:0.041 4:1 
1 1:-0.139 2:0.133 3:0.271 4:0 
1 1:-0.277 2:-0.137 3:-0.098 4:1 
1 1:-0.316 2:-0.04 3:0.076 4:2 
1 1:-0.431 2:-0.115 3:-0.017 4:3 
1 1:-0.402 2:0.212 3:0.143 4:3.162 
1 1:-0.333 2:0.069 3:-0.111 4:3 
1 1:-0.153 2:0.179 3:0.168 4:4.123 
1 1:-0.141 2:0.012 3:-0.14 4:4.472 
1 1:0.01 2:0.152 3:0.038 4:5 
1 1:0.124 2:0.114 3:0.054 4:4.472 
1 1:0.184 2:0.06 3:-0.033 4:4.123 
1 1:0.277 2:0.093 3:0.077 4:4 
1 1:0.293 2:0.016 3:0.021 4:3.162 
1 1:0.287 2:-0.005 3:0.019 4:2.828 
1 1:0.263 2:-0.024 3:0.097 4:3.162 
1 1:0.141 2:-0.122 3:-0.084 4:3 
1 1:0.103 2:-0.038 3:0.098 4:4.123 
1 1:-0.033 2:-0.136 3:0.08 4:4.472 
1 1:-0.249 2:-0.216 3:0.072 4:4.243 
1 1:-0.153 2:0.384 3:0.03 4:1.414 
1 1:0.201 2:0.354 3:0.015 4:1 
1 1:0.54 2:0.339 3:0.166 4:1 
1 1:0.713 2:0.173 3:0.11 4:1.414 
1 1:0.776 2:0.063 3:0.025 4:2.236 
1 1:0.815 2:0.038 3:0.079 4:3.162 
1 1:0.774 2:-0.041 3:0.119 4:4 
1 1:0.614 2:-0.16 3:0.121 4:5.099 
1 1:0.333 2:-0.281 3:0.094 4:6.325 
1 1:-0.042 2:-0.375 3:-0.023 4:6.708 
1 1:-0.394 2:-0.352 3:-0.068 4:7.211 
1 1:-0.303 2:0.375 3:0.145 4:3.606 
1 1:-0.073 2:0.23 3:0.157 4:3.162 
1 1:0 2:0.073 3:-0.025 4:2 
1 1:0.098 2:0.098 3:0.096 4:1.414 
1 1:0.1 2:0.002 3:0.212 4:2 
1 1:-0.11 2:-0.21 3:-0.064 4:2.236 
1 1:-0.256 2:-0.146 3:0.005 4:2.828 
1 1:-0.407 2:-0.151 3:-0.004 4:3.606 
1 1:-0.463 2:0.129 3:-0.003 4:3.162 
1 1:-0.332 2:0.131 3:0.161 4:2.828 
1 1:-0.361 2:-0.029 3:-0.077 4:2.236 
1 1:-0.314 2:0.047 3:0.095 4:2 
1 1:-0.361 2:-0.047 3:0.078 4:1.414 
1 1:-0.486 2:-0.125 3:-0.075 4:1 
1 1:-0.498 2:0.209 3:0.016 4:8.602 
1 1:-0.305 2:0.193 3:0.145 4:8.062 
1 1:-0.256 2:0.049 3:-0.197 4:6.708 
1 1:-0.011 2:0.245 3:0.11 4:6.325 
1 1:0.124 2:0.135 3:-0.041 4:5.099 
1 1:0.301 2:0.176 3:0.154 4:4 
1 1:0.323 2:0.022 3:-0.118 4:3.162 
1 1:0.463 2:0.14 3:0.039 4:2.828 
1 1:0.565 2:0.101 3:0.1 4:3.162 
1 1:0.567 2:0.002 3:0.154 4:3 
1 1:0.414 2:-0.152 3:0.048 4:2.236 
1 1:0.214 2:-0.201 3:0.035 4:2.236 
1 1:-0.022 2:-0.236 3:0.045 4:2 
1 1:-0.303 2:-0.281 3:0.007 4:3.162 
1 1:-0.405 2:0.319 3:-0.027 4:2.236 
1 1:-0.059 2:0.346 3:0.087 4:2 
1 1:0.201 2:0.259 3:0.066 4:1.414 
1 1:0.394 2:0.193 3:0.167 4:2 
1 1:0.42 2:0.026 3:0.015 4:2.236 
1 1:0.431 2:0.011 3:0.109 4:2.236 
1 1:0.333 2:-0.098 3:0.151 4:1.414 
1 1:0.084 2:-0.249 3:0.044 4:0 
1 1:-0.21 2:-0.293 3:0.035 4:1 
1 1:-0.414 2:0.123 3:-0.126 4:3.606 
1 1:-0.164 2:0.249 3:0.152 4:4.472 
1 1:-0.067 2:0.098 3:-0.093 4:3.606 
1 1:0.124 2:0.191 3:-0.046 4:2.828 
1 1:0.361 2:0.237 3:0.151 4:3.162 
1 1:0.447 2:0.086 3:0.064 4:3 
1 1:0.47 2:0.022 3:0.03 4:2.236 
1 1:0.462 2:-0.008 3:0.007 4:2.236 
1 1:0.447 2:-0.015 3:0.116 4:3 
1 1:0.316 2:-0.131 3:0.005 4:3.162 
1 1:0.181 2:-0.136 3:0.125 4:3.606 
1 1:-0.08 2:-0.26 3:-0.166 4:4.243 
1 1:-0.174 2:-0.094 3:0.221 4:5 
1 1:-0.489 2:-0.315 3:0.021 4:5.385 
1 1:-0.447 2:0.325 3:0.003 4:3.606 
1 1:-0.126 2:0.321 3:-0.068 4:2.236 
1 1:0.263 2:0.389 3:0.092 4:1.414 
1 1:0.561 2:0.297 3:0.174 4:1 
1 1:0.684 2:0.123 3:0.03 4:1 
1 1:0.777 2:0.093 3:0.094 4:1.414 
1 1:0.776 2:-0.001 3:0.023 4:2.236 
1 1:0.752 2:-0.024 3:0.087 4:3.162 
1 1:0.64 2:-0.112 3:0.081 4:4 
1 1:0.447 2:-0.193 3:0.113 4:4.123 
1 1:0.141 2:-0.306 3:0 4:5.385 
1 1:-0.164 2:-0.306 3:-0.023 4:5.831 
1 1:-0.447 2:-0.283 3:-0.017 4:6.403 
1 1:-0.406 2:0.08 3:0.08 4:2 
1 1:-0.406 2:0 3:-0.035 4:1.414 
1 1:-0.371 2:0.035 3:0.158 4:2 
1 1:-0.495 2:-0.124 3:0.106 4:2.236 
1 1:-0.447 2:0.23 3:-0.007 4:3.606 
1 1:-0.21 2:0.238 3:0.028 4:2.828 
1 1:0 2:0.21 3:0.112 4:2.236 
1 1:0.098 2:0.098 3:0.096 4:1 
1 1:0.1 2:0.002 3:0.101 4:1 
1 1:0 2:-0.1 3:0.045 4:1.414 
1 1:-0.145 2:-0.145 3:0.118 4:2.236 
1 1:-0.407 2:-0.262 3:-0.193 4:3.162 
1 1:-0.477 2:-0.07 3:0.041 4:4.123 
1 1:-0.514 2:0.045 3:-0.083 4:0 
1 1:-0.387 2:0.128 3:0.074 4:1.414 
1 1:-0.333 2:0.054 3:-0.088 4:2.236 
1 1:-0.191 2:0.142 3:0.283 4:3.162 
1 1:-0.333 2:-0.142 3:-0.061 4:4 
1 1:-0.356 2:0.216 3:0.005 4:6.708 
1 1:-0.145 2:0.211 3:-0.033 4:6.325 
1 1:0.1 2:0.244 3:0.101 4:6.083 
1 1:0.243 2:0.143 3:0.14 4:5 
1 1:0.246 2:0.003 3:-0.045 4:4 
1 1:0.294 2:0.049 3:-0.087 4:3.162 
1 1:0.43 2:0.135 3:0.037 4:2.828 
1 1:0.528 2:0.099 3:0.107 4:3.162 
1 1:0.52 2:-0.008 3:0.106 4:3 
1 1:0.405 2:-0.115 3:0.119 4:2.236 
1 1:0.171 2:-0.234 3:0.073 4:2.236 
1 1:-0.135 2:-0.306 3:-0.035 4:2 
1 1:-0.406 2:-0.271 3:0.006 4:3.162 
1 1:-0.447 2:0.139 3:0.152 4:7.616 
1 1:-0.46 2:-0.013 3:-0.223 4:6.708 
1 1:-0.25 2:0.21 3:0.134 4:6.403 
1 1:-0.174 2:0.076 3:0.005 4:5.657 
1 1:-0.103 2:0.071 3:0.011 4:5 
1 1:-0.043 2:0.059 3:0.046 4:4.472 
1 1:-0.03 2:0.013 3:-0.017 4:3.162 
1 1:0 2:0.03 3:0.03 4:3 
1 1:0 2:0 3:0 4:2.236 
1 1:0 2:0 3:0.22 4:2.236 
1 1:-0.22 2:-0.22 3:-0.221 4:2 
1 1:-0.219 2:0.001 3:0.3 4:3.162 
1 1:-0.517 2:-0.298 3:-0.183 4:3.606 
1 1:-0.405 2:0.319 3:0.016 4:2.828 
1 1:-0.102 2:0.303 3:0 4:1.414 
1 1:0.201 2:0.303 3:0.109 4:1 
1 1:0.394 2:0.193 3:0.167 4:1 
1 1:0.42 2:0.026 3:0.015 4:1.414 
1 1:0.431 2:0.011 3:0.109 4:2.236 
1 1:0.333 2:-0.098 3:0.151 4:1.414 
1 1:0.084 2:-0.249 3:0.044 4:0 
1 1:-0.21 2:-0.293 3:0.078 4:1 
1 1:-0.414 2:0.123 3:0.036 4:3.606 
1 1:-0.327 2:0.087 3:-0.173 4:4.123 
1 1:-0.067 2:0.26 3:0.07 4:3.606 
1 1:0.124 2:0.191 3:-0.046 4:2.828 
1 1:0.361 2:0.237 3:0.151 4:3.162 
1 1:0.447 2:0.086 3:0.064 4:3 
1 1:0.47 2:0.022 3:0.189 4:2.236 
1 1:0.303 2:-0.166 3:-0.235 4:1.414 
1 1:0.371 2:0.068 3:0.123 4:2 
1 1:0.316 2:-0.055 3:0.08 4:3.162 
1 1:0.181 2:-0.136 3:0.024 4:3.606 
1 1:0.021 2:-0.159 3:0.036 4:4.243 
1 1:-0.174 2:-0.195 3:0.12 4:5 
1 1:-0.489 2:-0.315 3:0.021 4:5.385 
1 1:-0.316 2:0.325 3:0.022 4:3.606 
1 1:-0.013 2:0.303 3:-0.026 4:2.236 
1 1:0.316 2:0.329 3:0.012 4:1.414 
1 1:0.633 2:0.317 3:0.223 4:1 
1 1:0.728 2:0.094 3:0.022 4:1 
1 1:0.8 2:0.072 3:0.083 4:1.414 
1 1:0.789 2:-0.011 3:0.01 4:2.236 
1 1:0.768 2:-0.021 3:0.112 4:3 
1 1:0.635 2:-0.133 3:0.132 4:4.123 
1 1:0.369 2:-0.266 3:0.004 4:5.385 
1 1:0.1 2:-0.27 3:0.105 4:6.708 
1 1:-0.275 2:-0.374 3:-0.069 4:7.211 
1 1:-0.406 2:0.08 3:0.08 4:1 
1 1:-0.406 2:0 3:0.089 4:1 
1 1:-0.495 2:-0.089 3:0.03 4:1.414 
1 1:-0.077 2:0.63 3:0.339 4:3.162 
1 1:0.215 2:0.292 3:0.06 4:2.236 
1 1:0.447 2:0.232 3:0.328 4:1.414 
1 1:0.351 2:-0.096 3:0.102 4:0 
1 1:0.153 2:-0.198 3:0.23 4:1 
1 1:-0.275 2:-0.428 3:0.045 4:2 
1 1:0 2:0.6 3:0.223 4:2.236 
1 1:0.377 2:0.377 3:0.097 4:1 
1 1:0.658 2:0.28 3:0.246 4:0 
1 1:0.692 2:0.034 3:0.096 4:1 
1 1:0.629 2:-0.062 3:0.039 4:2 
1 1:0.528 2:-0.101 3:0.39 4:3 
1 1:0.037 2:-0.491 3:0.39 4:4.123 
0.3035479532910951 1:-0.382 2:0.264 3:0.099 4:48.166 
0.3040651152077753 1:-0.217 2:0 3:0.082 4:50.249001 
1 1:-0.496 2:0.308 3:0.212 4:5.385 
1 1:-0.401 2:0.095 3:-0.181 4:4.472 
1 1:-0.124 2:0.277 3:0.072 4:3.606 
1 1:0.08 2:0.204 3:0.164 4:2.828 
1 1:0.12 2:0.04 3:0.036 4:2.236 
1 1:0.124 2:0.004 3:0.025 4:1 
1 1:0.103 2:-0.021 3:-0.103 4:0 
1 1:0.184 2:0.081 3:0.233 4:1.414 
1 1:0.032 2:-0.152 3:-0.21 4:1.414 
1 1:0.091 2:0.058 3:0.269 4:0 
1 1:-0.12 2:-0.211 3:0.004 4:1.414 
1 1:-0.335 2:-0.215 3:-0.217 4:2.828 
1 1:-0.333 2:0.003 3:0.224 4:3.606 
1 1:-0.414 2:0.144 3:0.27 4:5.657 
1 1:-0.385 2:0.155 3:0.013 4:3.606 
1 1:-0.243 2:0.142 3:0.146 4:3.162 
1 1:-0.246 2:-0.004 3:0.025 4:2 
1 1:-0.275 2:-0.029 3:-0.026 4:1 
1 1:-0.277 2:-0.002 3:-0.021 4:1 
1 1:-0.259 2:0.018 3:0.076 4:2.236 
1 1:-0.316 2:-0.058 3:-0.062 4:2.828 
1 1:-0.312 2:0.004 3:0.089 4:3.606 
1 1:-0.397 2:-0.085 3:0.149 4:4.472 
1 1:0.164 2:0.872 3:0.436 4:2.236 
1 1:0.6 2:0.436 3:0.258 4:1.414 
1 1:0.777 2:0.177 3:0.1 4:1 
1 1:0.854 2:0.077 3:0.037 4:0 
1 1:-0.447 2:0.353 3:-0.094 4:3.606 
1 1:0 2:0.447 3:0.131 4:2.236 
1 1:0.316 2:0.316 3:0.032 4:1.414 
1 1:0.6 2:0.284 3:0.261 4:0 
1 1:0.623 2:0.023 3:0.032 4:1 
1 1:0.614 2:-0.009 3:0.05 4:2 
1 1:0.555 2:-0.059 3:0.279 4:3.162 
1 1:0.217 2:-0.338 3:0.122 4:2.828 
1 1:-0.243 2:-0.459 3:-0.147 4:3.606 
1 1:-0.52 2:0.328 3:0.033 4:4.472 
1 1:-0.225 2:0.295 3:-0.361 4:3.606 
1 1:0.431 2:0.656 3:0.426 4:2.236 
1 1:0.662 2:0.231 3:0.099 4:1.414 
1 1:0.794 2:0.132 3:0.096 4:0 
1 1:0.83 2:0.036 3:0.032 4:1.414 
1 1:0.834 2:0.004 3:0.132 4:2.236 
1 1:0.707 2:-0.127 3:0.126 4:3.162 
1 1:0.454 2:-0.253 3:0.201 4:4.123 
1 1:0 2:-0.454 3:0.23 4:5 
1 1:0.54 2:0.54 3:0.465 4:1.414 
1 1:0.614 2:0.074 3:0.031 4:0 
1 1:0.657 2:0.043 3:0.306 4:1.414 
1 1:0.394 2:-0.263 3:0.502 4:2.828 
1 1:-0.371 2:-0.765 3:-0.175 4:3.606 
1 1:-0.447 2:0.283 3:-0.023 4:1.414 
1 1:-0.141 2:0.306 3:0.164 4:1 
1 1:0 2:0.141 3:0.444 4:1 
1 1:-0.302 2:-0.302 3:0.041 4:1.414 
1 1:-0.394 2:0.171 3:-0.282 4:4.472 
1 1:0.059 2:0.453 3:0.114 4:3.162 
1 1:0.397 2:0.338 3:0.068 4:2 
1 1:0.667 2:0.27 3:0.267 4:1.414 
1 1:0.67 2:0.003 3:0.118 4:1 
1 1:0.555 2:-0.115 3:0.123 4:1 
1 1:0.316 2:-0.238 3:0.078 4:1.414 
1 1:0 2:-0.316 3:0.131 4:2.236 
1 1:-0.447 2:-0.447 3:-0.094 4:3.162 
1 1:0.28 2:0.225 3:0.505 4:0 
1 1:-0.458 2:0.173 3:-0.126 4:4.472 
1 1:-0.159 2:0.299 3:-0.12 4:3.162 
1 1:0.259 2:0.418 3:0.206 4:3 
1 1:0.472 2:0.213 3:0.3 4:2.236 
1 1:0.385 2:-0.087 3:-0.074 4:1.414 
1 1:0.371 2:-0.013 3:0.223 4:1 
1 1:0.135 2:-0.236 3:-0.02 4:0 
1 1:-0.081 2:-0.216 3:0.308 4:1.414 
1 1:0.707 2:1.414 3:1.219 4:3.162 
1 1:0.962 2:-0.004 3:-0.004 4:1.414 
1 1:0.962 2:0 3:0.476 4:2.236 
1 1:-0.371 2:0.366 3:0.261 4:2.236 
1 1:-0.267 2:0.105 3:0.105 4:1 
1 1:-0.267 2:0 3:0.277 4:0 
1 1:-0.447 2:0.367 3:0.03 4:1 
1 1:-0.11 2:0.337 3:0.206 4:1 
1 1:0.02 2:0.13 3:-0.079 4:1.414 
1 1:0.229 2:0.209 3:0.256 4:2.236 
1 1:0.182 2:-0.047 3:0.218 4:2 
1 1:-0.083 2:-0.265 3:0.148 4:1.414 
1 1:-0.496 2:-0.413 3:-0.12 4:1 
1 1:0 2:0.555 3:0 4:2.236 
1 1:0.555 2:0.555 3:0.443 4:1.414 
1 1:0.667 2:0.112 3:0.242 4:0 
1 1:0.537 2:-0.13 3:0.462 4:1 
1 1:-0.055 2:-0.592 3:0.247 4:2.236 
1 1:-0.21 2:0.498 3:0.288 4:1 
1 1:0 2:0.21 3:0.031 4:1.414 
1 1:0.179 2:0.179 3:-0.089 4:2.236 
1 1:0.447 2:0.268 3:0.519 4:1.414 
1 1:0.196 2:-0.251 3:0.028 4:0 
1 1:-0.083 2:-0.279 3:0.032 4:1 
1 1:-0.394 2:-0.311 3:-0.04 4:2 
1 1:-0.196 2:0.389 3:0.375 4:1 
1 1:-0.182 2:0.014 3:0.095 4:1 
1 1:-0.263 2:-0.081 3:0.488 4:1.414 
1 1:-0.263 2:0.292 3:0.225 4:3.162 
1 1:-0.196 2:0.067 3:-0.129 4:2.236 
1 1:0 2:0.196 3:0.279 4:1 
1 1:-0.083 2:-0.083 3:0.076 4:1.414 
1 1:-0.243 2:-0.159 3:0.017 4:2.236 
1 1:-0.419 2:-0.177 3:0.048 4:3.162 
1 1:-0.371 2:0.175 3:0.403 4:2 
1 1:-0.371 2:0.175 3:-0.244 4:3.162 
1 1:0.048 2:0.419 3:0.047 4:2 
1 1:0.419 2:0.371 3:0.331 4:1.414 
1 1:0.459 2:0.04 3:0.128 4:1 
1 1:0.371 2:-0.088 3:0.479 4:1 
1 1:-0.196 2:-0.568 3:-0.057 4:1.414 
1 1:-0.371 2:0.243 3:-0.129 4:1.414 
1 1:0 2:0.371 3:0.129 4:1 
1 1:0.243 2:0.243 3:0.375 4:1 
1 1:0.11 2:-0.132 3:0.055 4:1.414 
1 1:-0.077 2:-0.187 3:0.108 4:2 
1 1:-0.371 2:-0.295 3:0.024 4:3.162 
1 1:-0.377 2:0.412 3:0.277 4:6.403 
1 1:-0.243 2:0.135 3:0.152 4:5.657 
1 1:-0.26 2:-0.017 3:0.323 4:4.243 
1 1:-0.394 2:0.206 3:0.189 4:0 
1 1:-0.377 2:0.017 3:0.017 4:1 
1 1:-0.377 2:0 3:0.33 4:2 
0.4979090158143962 1:-0.52 2:0.384 3:0.258 4:24.042 
1 1:-0.394 2:0 3:0.406 4:22.136 
1 1:-0.243 2:0.568 3:0.409 4:4.123 
1 1:-0.083 2:0.159 3:-0.106 4:3.162 
1 1:0.182 2:0.265 3:0.251 4:2.236 
1 1:0.196 2:0.014 3:0.258 4:1 
1 1:-0.048 2:-0.244 3:0.103 4:1.414 
1 1:-0.394 2:-0.346 3:-0.076 4:2.236 
1 1:-0.087 2:0.538 3:0.032 4:2 
1 1:0.419 2:0.506 3:0.531 4:1.414 
1 1:0.394 2:-0.025 3:0.187 4:1 
1 1:0.182 2:-0.212 3:0.166 4:1 
1 1:-0.196 2:-0.378 3:0.133 4:1.414 
1 1:-0.303 2:0.478 3:0.222 4:3 
1 1:-0.048 2:0.256 3:-0.083 4:2 
1 1:0.291 2:0.339 3:0.258 4:1 
1 1:0.371 2:0.08 3:0.452 4:0 
1 1:0 2:-0.371 3:0.009 4:1 
1 1:-0.381 2:-0.381 3:0.071 4:2 
1 1:-0.404 2:0.21 3:0.002 4:3.162 
1 1:-0.196 2:0.208 3:-0.009 4:3 
1 1:0.021 2:0.217 3:0.112 4:2.236 
1 1:0.126 2:0.105 3:0.026 4:2.236 
1 1:0.206 2:0.08 3:0.075 4:3 
1 1:0.21 2:0.004 3:0.007 4:3.162 
1 1:0.207 2:-0.003 3:0.214 4:3.606 
1 1:-0.01 2:-0.217 3:-0.125 4:3.606 
1 1:-0.102 2:-0.092 3:-0.048 4:4.472 
1 1:-0.147 2:-0.044 3:0.237 4:4.123 
1 1:-0.428 2:-0.282 3:-0.051 4:3 
1 1:-0.454 2:0.155 3:0.108 4:5 
1 1:-0.408 2:0.046 3:0.046 4:5.831 
1 1:-0.408 2:0 3:0.186 4:6.708 
1 1:-0.277 2:0.374 3:0.052 4:2.236 
1 1:0.045 2:0.322 3:0.045 4:1.414 
1 1:0.322 2:0.277 3:0.24 4:0 
1 1:0.447 2:0.088 3:0.088 4:2 
1 1:0.447 2:0 3:0.046 4:3 
1 1:0.401 2:-0.046 3:0.23 4:4 
1 1:0.124 2:-0.277 3:0.064 4:5.099 
1 1:-0.217 2:-0.341 3:-0.043 4:5.385 
1 1:-0.514 2:-0.298 3:-0.005 4:6.708 
1 1:-0.356 2:0.216 3:-0.021 4:4.243 
1 1:-0.119 2:0.237 3:0.019 4:3.606 
1 1:0.1 2:0.218 3:0.101 4:3.162 
1 1:0.217 2:0.117 3:0.089 4:2 
1 1:0.246 2:0.029 3:-0.117 4:1 
1 1:0.391 2:0.145 3:0.089 4:1 
1 1:0.447 2:0.056 3:0.214 4:2.236 
1 1:0.289 2:-0.158 3:-0.069 4:2.828 
1 1:0.2 2:-0.089 3:0.013 4:3.162 
1 1:0.098 2:-0.102 3:0.072 4:3 
1 1:-0.077 2:-0.174 3:-0.009 4:2.236 
1 1:-0.243 2:-0.166 3:0.106 4:2.236 
1 1:-0.514 2:-0.272 3:-0.156 4:2 
1 1:-0.394 2:0.146 3:0.075 4:3.162 
1 1:-0.323 2:0.071 3:0.011 4:2.236 
1 1:-0.263 2:0.06 3:0.017 4:1.414 
1 1:-0.22 2:0.043 3:0.013 4:1 
1 1:-0.191 2:0.03 3:0.035 4:1.414 
1 1:-0.196 2:-0.006 3:-0.006 4:2.828 
1 1:-0.196 2:0 3:-0.006 4:4.243 
1 1:-0.191 2:0.006 3:0.262 4:5.657 
1 1:-0.447 2:-0.257 3:-0.123 4:5.831 
1 1:-0.059 2:-0.084 3:-0.041 4:0 
1 1:-0.102 2:-0.043 3:0.118 4:1 
1 1:-0.263 2:-0.161 3:-0.043 4:2 
1 1:-0.381 2:-0.118 3:0.289 4:3 
1 1:-0.523 2:0.091 3:-0.099 4:3 
1 1:-0.333 2:0.19 3:0.11 4:4.123 
1 1:-0.252 2:0.08 3:0.058 4:4.472 
1 1:-0.23 2:0.023 3:-0.065 4:4.472 
1 1:-0.141 2:0.088 3:-0.041 4:3.606 
1 1:-0.012 2:0.129 3:-0.024 4:2.828 
1 1:0.141 2:0.153 3:0.018 4:3.162 
1 1:0.277 2:0.136 3:0.12 4:3 
1 1:0.293 2:0.016 3:0.112 4:2.236 
1 1:0.196 2:-0.097 3:-0.167 4:1.414 
1 1:0.267 2:0.07 3:0.12 4:2 
1 1:0.217 2:-0.05 3:0.091 4:3.162 
1 1:0.077 2:-0.14 3:-0.054 4:3.606 
1 1:-0.01 2:-0.086 3:0.078 4:4.243 
1 1:-0.174 2:-0.164 3:0.151 4:5 
1 1:-0.489 2:-0.315 3:-0.209 4:5.385 
1 1:-0.481 2:0.319 3:-0.103 4:2.236 
1 1:-0.059 2:0.422 3:0.054 4:1.414 
1 1:0.309 2:0.368 3:0.137 4:1 
1 1:0.54 2:0.231 3:0.057 4:1 
1 1:0.713 2:0.173 3:0.11 4:1.414 
1 1:0.776 2:0.063 3:0.071 4:2.236 
1 1:0.768 2:-0.008 3:0.047 4:2.236 
1 1:0.713 2:-0.055 3:0.017 4:2 
1 1:0.641 2:-0.072 3:0.237 4:1.414 
1 1:0.333 2:-0.309 3:-0.031 4:1 
1 1:0.055 2:-0.277 3:0.079 4:2.236 
1 1:-0.301 2:-0.356 3:0.065 4:2.828 
1 1:-0.309 2:0.342 3:0.022 4:5.099 
1 1:0.012 2:0.321 3:0.09 4:4 
1 1:0.243 2:0.23 3:0.094 4:3.162 
1 1:0.379 2:0.136 3:0.057 4:2.828 
1 1:0.458 2:0.079 3:0.083 4:2.236 
1 1:0.454 2:-0.003 3:0.135 4:2 
1 1:0.316 2:-0.138 3:0.123 4:1.414 
1 1:0.055 2:-0.261 3:0.054 4:2 
1 1:-0.259 2:-0.315 3:0 4:2.236 
1 1:-0.353 2:0.201 3:-0.028 4:5.657 
1 1:-0.124 2:0.229 3:0.216 4:5 
1 1:-0.11 2:0.014 3:-0.207 4:3.606 
1 1:0.11 2:0.221 3:0.075 4:3.162 
1 1:0.256 2:0.146 3:0.159 4:2 
1 1:0.243 2:-0.014 3:-0.087 4:1 
1 1:0.316 2:0.074 3:0.031 4:1 
1 1:0.359 2:0.043 3:0.12 4:2.236 
1 1:0.282 2:-0.077 3:0.031 4:2.828 
1 1:0.174 2:-0.108 3:0.118 4:3.606 
1 1:-0.052 2:-0.226 3:-0.061 4:4.123 
1 1:-0.217 2:-0.165 3:-0.036 4:5 
1 1:-0.346 2:-0.129 3:0.132 4:6.083 
1 1:-0.468 2:0.107 3:0.033 4:1.414 
1 1:-0.394 2:0.074 3:-0.082 4:2.236 
1 1:-0.237 2:0.156 3:0.09 4:3.162 
1 1:-0.171 2:0.066 3:0.114 4:2.236 
1 1:-0.219 2:-0.048 3:-0.076 4:1.414 
1 1:-0.191 2:0.028 3:0.034 4:1 
1 1:-0.196 2:-0.006 3:-0.004 4:2.236 
1 1:-0.198 2:-0.002 3:0.087 4:3.606 
1 1:-0.287 2:-0.089 3:0.029 4:5 
1 1:-0.406 2:-0.119 3:0.056 4:5.831 
1 1:-0.273 2:0.174 3:0.041 4:1 
1 1:-0.139 2:0.133 3:0.271 4:0 
1 1:-0.277 2:-0.137 3:-0.098 4:1 
1 1:-0.316 2:-0.04 3:0.076 4:2 
1 1:-0.431 2:-0.115 3:-0.017 4:3 
1 1:-0.402 2:0.212 3:0.143 4:3.162 
1 1:-0.333 2:0.069 3:-0.111 4:3 
1 1:-0.153 2:0.179 3:0.168 4:4.123 
1 1:-0.141 2:0.012 3:-0.14 4:4.472 
1 1:0.01 2:0.152 3:0.038 4:5 
1 1:0.124 2:0.114 3:0.054 4:4.472 
1 1:0.184 2:0.06 3:-0.033 4:4.123 
1 1:0.277 2:0.093 3:0.077 4:4 
1 1:0.293 2:0.016 3:0.021 4:3.162 
1 1:0.287 2:-0.005 3:0.019 4:2.828 
1 1:0.263 2:-0.024 3:0.097 4:3.162 
1 1:0.141 2:-0.122 3:-0.084 4:3 
1 1:0.103 2:-0.038 3:0.098 4:4.123 
1 1:-0.033 2:-0.136 3:0.08 4:4.472 
1 1:-0.249 2:-0.216 3:0.072 4:4.243 
1 1:-0.153 2:0.384 3:0.03 4:1.414 
1 1:0.201 2:0.354 3:0.015 4:1 
1 1:0.54 2:0.339 3:0.166 4:1 
1 1:0.713 2:0.173 3:0.11 4:1.414 
1 1:0.776 2:0.063 3:0.025 4:2.236 
1 1:0.815 2:0.038 3:0.079 4:3.162 
1 1:0.774 2:-0.041 3:0.119 4:4 
1 1:0.614 2:-0.16 3:0.121 4:5.099 
1 1:0.333 2:-0.281 3:0.094 4:6.325 
1 1:-0.042 2:-0.375 3:-0.023 4:6.708 
1 1:-0.394 2:-0.352 3:-0.068 4:7.211 
1 1:-0.303 2:0.375 3:0.145 4:3.606 
1 1:-0.073 2:0.23 3:0.157 4:3.162 
1 1:0 2:0.073 3:-0.025 4:2 
1 1:0.098 2:0.098 3:0.096 4:1.414 
1 1:0.1 2:0.002 3:0.212 4:2 
1 1:-0.11 2:-0.21 3:-0.064 4:2.236 
1 1:-0.256 2:-0.146 3:0.005 4:2.828 
1 1:-0.407 2:-0.151 3:-0.004 4:3.606 
1 1:-0.463 2:0.129 3:-0.003 4:3.162 
1 1:-0.332 2:0.131 3:0.161 4:2.828 
1 1:-0.361 2:-0.029 3:-0.077 4:2.236 
1 1:-0.314 2:0.047 3:0.095 4:2 
1 1:-0.361 2:-0.047 3:0.078 4:1.414 
1 1:-0.486 2:-0.125 3:-0.075 4:1 
1 1:-0.498 2:0.209 3:0.016 4:8.602 
1 1:-0.305 2:0.193 3:0.145 4:8.062 
1 1:-0.256 2:0.049 3:-0.197 4:6.708 
1 1:-0.011 2:0.245 3:0.11 4:6.325 
1 1:0.124 2:0.135 3:-0.041 4:5.099 
1 1:0.301 2:0.176 3:0.154 4:4 
1 1:0.323 2:0.022 3:-0.118 4:3.162 
1 1:0.463 2:0.14 3:0.039 4:2.828 
1 1:0.565 2:0.101 3:0.1 4:3.162 
1 1:0.567 2:0.002 3:0.154 4:3 
1 1:0.414 2:-0.152 3:0.048 4:2.236 
1 1:0.214 2:-0.201 3:0.035 4:2.236 
1 1:-0.022 2:-0.236 3:0.045 4:2 
1 1:-0.303 2:-0.281 3:0.007 4:3.162 
1 1:-0.405 2:0.319 3:-0.027 4:2.236 
1 1:-0.059 2:0.346 3:0.087 4:2 
1 1:0.201 2:0.259 3:0.066 4:1.414 
1 1:0.394 2:0.193 3:0.167 4:2 
1 1:0.42 2:0.026 3:0.015 4:2.236 
1 1:0.431 2:0.011 3:0.109 4:2.236 
1 1:0.333 2:-0.098 3:0.151 4:1.414 
1 1:0.084 2:-0.249 3:0.044 4:0 
1 1:-0.21 2:-0.293 3:0.035 4:1 
1 1:-0.414 2:0.123 3:-0.126 4:3.606 
1 1:-0.164 2:0.249 3:0.152 4:4.472 
1 1:-0.067 2:0.098 3:-0.093 4:3.606 
1 1:0.124 2:0.191 3:-0.046 4:2.828 
1 1:0.361 2:0.237 3:0.151 4:3.162 
1 1:0.447 2:0.086 3:0.064 4:3 
1 1:0.47 2:0.022 3:0.03 4:2.236 
1 1:0.462 2:-0.008 3:0.007 4:2.236 
1 1:0.447 2:-0.015 3:0.116 4:3 
1 1:0.316 2:-0.131 3:0.005 4:3.162 
1 1:0.181 2:-0.136 3:0.125 4:3.606 
1 1:-0.08 2:-0.26 3:-0.166 4:4.243 
1 1:-0.174 2:-0.094 3:0.221 4:5 
1 1:-0.489 2:-0.315 3:0.021 4:5.385 
1 1:-0.447 2:0.325 3:0.003 4:3.606 
1 1:-0.126 2:0.321 3:-0.068 4:2.236 
1 1:0.263 2:0.389 3:0.092 4:1.414 
1 1:0.561 2:0.297 3:0.174 4:1 
1 1:0.684 2:0.123 3:0.03 4:1 
1 1:0.777 2:0.093 3:0.094 4:1.414 
1 1:0.776 2:-0.001 3:0.023 4:2.236 
1 1:0.752 2:-0.024 3:0.087 4:3.162 
1 1:0.64 2:-0.112 3:0.081 4:4 
1 1:0.447 2:-0.193 3:0.113 4:4.123 
1 1:0.141 2:-0.306 3:0 4:5.385 
1 1:-0.164 2:-0.306 3:-0.023 4:5.831 
1 1:-0.447 2:-0.283 3:-0.017 4:6.403 
1 1:-0.406 2:0.08 3:0.08 4:2 
1 1:-0.406 2:0 3:-0.035 4:1.414 
1 1:-0.371 2:0.035 3:0.158 4:2 
1 1:-0.495 2:-0.124 3:0.106 4:2.236 
1 1:-0.447 2:0.23 3:-0.007 4:3.606 
1 1:-0.21 2:0.238 3:0.028 4:2.828 
1 1:0 2:0.21 3:0.112 4:2.236 
1 1:0.098 2:0.098 3:0.096 4:1 
1 1:0.1 2:0.002 3:0.101 4:1 
1 1:0 2:-0.1 3:0.045 4:1.414 
1 1:-0.145 2:-0.145 3:0.118 4:2.236 
1 1:-0.407 2:-0.262 3:-0.193 4:3.162 
1 1:-0.477 2:-0.07 3:0.041 4:4.123 
1 1:-0.514 2:0.045 3:-0.083 4:0 
1 1:-0.387 2:0.128 3:0.074 4:1.414 
1 1:-0.333 2:0.054 3:-0.088 4:2.236 
1 1:-0.191 2:0.142 3:0.283 4:3.162 
1 1:-0.333 2:-0.142 3:-0.061 4:4 
1 1:-0.356 2:0.216 3:0.005 4:6.708 
1 1:-0.145 2:0.211 3:-0.033 4:6.325 
1 1:0.1 2:0.244 3:0.101 4:6.083 
1 1:0.243 2:0.143 3:0.14 4:5 
1 1:0.246 2:0.003 3:-0.045 4:4 
1 1:0.294 2:0.049 3:-0.087 4:3.162 
1 1:0.43 2:0.135 3:0.037 4:2.828 
1 1:0.528 2:0.099 3:0.107 4:3.162 
1 1:0.52 2:-0.008 3:0.106 4:3 
1 1:0.405 2:-0.115 3:0.119 4:2.236 
1 1:0.171 2:-0.234 3:0.073 4:2.236 
1 1:-0.135 2:-0.306 3:-0.035 4:2 
1 1:-0.406 2:-0.271 3:0.006 4:3.162 
1 1:-0.447 2:0.139 3:0.152 4:7.616 
1 1:-0.46 2:-0.013 3:-0.223 4:6.708 
1 1:-0.25 2:0.21 3:0.134 4:6.403 
1 1:-0.174 2:0.076 3:0.005 4:5.657 
1 1:-0.103 2:0.071 3:0.011 4:5 
1 1:-0.043 2:0.059 3:0.046 4:4.472 
1 1:-0.03 2:0.013 3:-0.017 4:3.162 
1 1:0 2:0.03 3:0.03 4:3 
1 1:0 2:0 3:0 4:2.236 
1 1:0 2:0 3:0.22 4:2.236 
1 1:-0.22 2:-0.22 3:-0.221 4:2 
1 1:-0.219 2:0.001 3:0.3 4:3.162 
1 1:-0.517 2:-0.298 3:-0.183 4:3.606 
1 1:-0.405 2:0.319 3:0.016 4:2.828 
1 1:-0.102 2:0.303 3:0 4:1.414 
1 1:0.201 2:0.303 3:0.109 4:1 
1 1:0.394 2:0.193 3:0.167 4:1 
1 1:0.42 2:0.026 3:0.015 4:1.414 
1 1:0.431 2:0.011 3:0.109 4:2.236 
1 1:0.333 2:-0.098 3:0.151 4:1.414 
1 1:0.084 2:-0.249 3:0.044 4:0 
1 1:-0.21 2:-0.293 3:0.078 4:1 
1 1:-0.414 2:0.123 3:0.036 4:3.606 
1 1:-0.327 2:0.087 3:-0.173 4:4.123 
1 1:-0.067 2:0.26 3:0.07 4:3.606 
1 1:0.124 2:0.191 3:-0.046 4:2.828 
1 1:0.361 2:0.237 3:0.151 4:3.162 
1 1:0.447 2:0.086 3:0.064 4:3 
1 1:0.47 2:0.022 3:0.189 4:2.236 
1 1:0.303 2:-0.166 3:-0.235 4:1.414 
1 1:0.371 2:0.068 3:0.123 4:2 
1 1:0.316 2:-0.055 3:0.08 4:3.162 
1 1:0.181 2:-0.136 3:0.024 4:3.606 
1 1:0.021 2:-0.159 3:0.036 4:4.243 
1 1:-0.174 2:-0.195 3:0.12 4:5 
1 1:-0.489 2:-0.315 3:0.021 4:5.385 
1 1:-0.316 2:0.325 3:0.022 4:3.606 
1 1:-0.013 2:0.303 3:-0.026 4:2.236 
1 1:0.316 2:0.329 3:0.012 4:1.414 
1 1:0.633 2:0.317 3:0.223 4:1 
1 1:0.728 2:0.094 3:0.022 4:1 
1 1:0.8 2:0.072 3:0.083 4:1.414 
1 1:0.789 2:-0.011 3:0.01 4:2.236 
1 1:0.768 2:-0.021 3:0.112 4:3 
1 1:0.635 2:-0.133 3:0.132 4:4.123 
1 1:0.369 2:-0.266 3:0.004 4:5.385 
1 1:0.1 2:-0.27 3:0.105 4:6.708 
1 1:-0.275 2:-0.374 3:-0.069 4:7.211 
1 1:-0.406 2:0.08 3:0.08 4:1 
1 1:-0.406 2:0 3:0.089 4:1 
1 1:-0.495 2:-0.089 3:0.03 4:1.414 
1 1:-0.077 2:0.63 3:0.339 4:3.162 
1 1:0.215 2:0.292 3:0.06 4:2.236 
1 1:0.447 2:0.232 3:0.328 4:1.414 
1 1:0.351 2:-0.096 3:0.102 4:0 
1 1:0.153 2:-0.198 3:0.23 4:1 
1 1:-0.275 2:-0.428 3:0.045 4:2 
1 1:0 2:0.6 3:0.223 4:2.236 
1 1:0.377 2:0.377 3:0.097 4:1 
1 1:0.658 2:0.28 3:0.246 4:0 
1 1:0.692 2:0.034 3:0.096 4:1 
1 1:0.629 2:-0.062 3:0.039 4:2 
1 1:0.528 2:-0.101 3:0.39 4:3 
1 1:0.037 2:-0.491 3:0.39 4:4.123 
1 1:-0.382 2:0.264 3:0.099 4:48.166 
1 1:-0.217 2:0 3:0.082 4:50.249001 
1 1:-0.496 2:0.308 3:0.212 4:5.385 
1 1:-0.401 2:0.095 3:-0.181 4:4.472 
1 1:-0.124 2:0.277 3:0.072 4:3.606 
1 1:0.08 2:0.204 3:0.164 4:2.828 
1 1:0.12 2:0.04 3:0.036 4:2.236 
1 1:0.124 2:0.004 3:0.025 4:1 
1 1:0.103 2:-0.021 3:-0.103 4:0 
1 1:0.184 2:0.081 3:0.233 4:1.414 
1 1:0.032 2:-0.152 3:-0.21 4:1.414 
1 1:0.091 2:0.058 3:0.269 4:0 
1 1:-0.12 2:-0.211 3:0.004 4:1.414 
1 1:-0.335 2:-0.215 3:-0.217 4:2.828 
1 1:-0.333 2:0.003 3:0.224 4:3.606 
1 1:-0.414 2:0.144 3:0.27 4:5.657 
1 1:-0.385 2:0.155 3:0.013 4:3.606 
1 1:-0.243 2:0.142 3:0.146 4:3.162 
1 1:-0.246 2:-0.004 3:0.025 4:2 
1 1:-0.275 2:-0.029 3:-0.026 4:1 
1 1:-0.277 2:-0.002 3:-0.021 4:1 
1 1:-0.259 2:0.018 3:0.076 4:2.236 
1 1:-0.316 2:-0.058 3:-0.062 4:2.828 
1 1:-0.312 2:0.004 3:0.089 4:3.606 
1 1:-0.397 2:-0.085 3:0.149 4:4.472 
1 1:0.164 2:0.872 3:0.436 4:2.236 
1 1:0.6 2:0.436 3:0.258 4:1.414 
1 1:0.777 2:0.177 3:0.1 4:1 
1 1:0.854 2:0.077 3:0.037 4:0 
1 1:-0.447 2:0.353 3:-0.094 4:3.606 
1 1:0 2:0.447 3:0.131 4:2.236 
1 1:0.316 2:0.316 3:0.032 4:1.414 
1 1:0.6 2:0.284 3:0.261 4:0 
1 1:0.623 2:0.023 3:0.032 4:1 
1 1:0.614 2:-0.009 3:0.05 4:2 
1 1:0.555 2:-0.059 3:0.279 4:3.162 
1 1:0.217 2:-0.338 3:0.122 4:2.828 
1 1:-0.243 2:-0.459 3:-0.147 4:3.606 
1 1:-0.52 2:0.328 3:0.033 4:4.472 
1 1:-0.225 2:0.295 3:-0.361 4:3.606 
1 1:0.431 2:0.656 3:0.426 4:2.236 
1 1:0.662 2:0.231 3:0.099 4:1.414 
1 1:0.794 2:0.132 3:0.096 4:0 
1 1:0.83 2:0.036 3:0.032 4:1.414 
1 1:0.834 2:0.004 3:0.132 4:2.236 
1 1:0.707 2:-0.127 3:0.126 4:3.162 
1 1:0.454 2:-0.253 3:0.201 4:4.123 
1 1:0 2:-0.454 3:0.23 4:5 
1 1:0.54 2:0.54 3:0.465 4:1.414 
1 1:0.614 2:0.074 3:0.031 4:0 
1 1:0.657 2:0.043 3:0.306 4:1.414 
1 1:0.394 2:-0.263 3:0.502 4:2.828 
1 1:-0.371 2:-0.765 3:-0.175 4:3.606 
1 1:-0.447 2:0.283 3:-0.023 4:1.414 
1 1:-0.141 2:0.306 3:0.164 4:1 
1 1:0 2:0.141 3:0.444 4:1 
1 1:-0.302 2:-0.302 3:0.041 4:1.414 
1 1:-0.394 2:0.171 3:-0.282 4:4.472 
1 1:0.059 2:0.453 3:0.114 4:3.162 
1 1:0.397 2:0.338 3:0.068 4:2 
1 1:0.667 2:0.27 3:0.267 4:1.414 
1 1:0.67 2:0.003 3:0.118 4:1 
1 1:0.555 2:-0.115 3:0.123 4:1 
1 1:0.316 2:-0.238 3:0.078 4:1.414 
1 1:0 2:-0.316 3:0.131 4:2.236 
1 1:-0.447 2:-0.447 3:-0.094 4:3.162 
1 1:0.28 2:0.225 3:0.505 4:0 
1 1:-0.458 2:0.173 3:-0.126 4:4.472 
1 1:-0.159 2:0.299 3:-0.12 4:3.162 
1 1:0.259 2:0.418 3:0.206 4:3 
1 1:0.472 2:0.213 3:0.3 4:2.236 
1 1:0.385 2:-0.087 3:-0.074 4:1.414 
1 1:0.371 2:-0.013 3:0.223 4:1 
1 1:0.135 2:-0.236 3:-0.02 4:0 
1 1:-0.081 2:-0.216 3:0.308 4:1.414 
1 1:0.707 2:1.414 3:1.219 4:3.162 
1 1:0.962 2:-0.004 3:-0.004 4:1.414 
1 1:0.962 2:0 3:0.476 4:2.236 
1 1:-0.371 2:0.366 3:0.261 4:2.236 
1 1:-0.267 2:0.105 3:0.105 4:1 
1 1:-0.267 2:0 3:0.277 4:0 
1 1:-0.447 2:0.367 3:0.03 4:1 
1 1:-0.11 2:0.337 3:0.206 4:1 
1 1:0.02 2:0.13 3:-0.079 4:1.414 
1 1:0.229 2:0.209 3:0.256 4:2.236 
1 1:0.182 2:-0.047 3:0.218 4:2 
1 1:-0.083 2:-0.265 3:0.148 4:1.414 
1 1:-0.496 2:-0.413 3:-0.12 4:1 
1 1:0 2:0.555 3:0 4:2.236 
1 1:0.555 2:0.555 3:0.443 4:1.414 
1 1:0.667 2:0.112 3:0.242 4:0 
1 1:0.537 2:-0.13 3:0.462 4:1 
1 1:-0.055 2:-0.592 3:0.247 4:2.236 
1 1:-0.21 2:0.498 3:0.288 4:1 
1 1:0 2:0.21 3:0.031 4:1.414 
1 1:0.179 2:0.179 3:-0.089 4:2.236 
1 1:0.447 2:0.268 3:0.519 4:1.414 
1 1:0.196 2:-0.251 3:0.028 4:0 
1 1:-0.083 2:-0.279 3:0.032 4:1 
1 1:-0.394 2:-0.311 3:-0.04 4:2 
1 1:-0.196 2:0.389 3:0.375 4:1 
1 1:-0.182 2:0.014 3:0.095 4:1 
1 1:-0.263 2:-0.081 3:0.488 4:1.414 
1 1:-0.263 2:0.292 3:0.225 4:3.162 
1 1:-0.196 2:0.067 3:-0.129 4:2.236 
1 1:0 2:0.196 3:0.279 4:1 
1 1:-0.083 2:-0.083 3:0.076 4:1.414 
1 1:-0.243 2:-0.159 3:0.017 4:2.236 
1 1:-0.419 2:-0.177 3:0.048 4:3.162 
1 1:-0.371 2:0.175 3:0.403 4:2 
1 1:-0.371 2:0.175 3:-0.244 4:3.162 
1 1:0.048 2:0.419 3:0.047 4:2 
1 1:0.419 2:0.371 3:0.331 4:1.414 
1 1:0.459 2:0.04 3:0.128 4:1 
1 1:0.371 2:-0.088 3:0.479 4:1 
1 1:-0.196 2:-0.568 3:-0.057 4:1.414 
1 1:-0.371 2:0.243 3:-0.129 4:1.414 
1 1:0 2:0.371 3:0.129 4:1 
1 1:0.243 2:0.243 3:0.375 4:1 
1 1:0.11 2:-0.132 3:0.055 4:1.414 
1 1:-0.077 2:-0.187 3:0.108 4:2 
1 1:-0.371 2:-0.295 3:0.024 4:3.162 
1 1:-0.377 2:0.412 3:0.277 4:6.403 
1 1:-0.243 2:0.135 3:0.152 4:5.657 
1 1:-0.26 2:-0.017 3:0.323 4:4.243 
1 1:-0.394 2:0.206 3:0.189 4:0 
1 1:-0.377 2:0.017 3:0.017 4:1 
1 1:-0.377 2:0 3:0.33 4:2 
1 1:-0.52 2:0.384 3:0.258 4:24.042 
0.9075406038157636 1:-0.394 2:0.126 3:0.126 4:23.087 
1 1:-0.394 2:0 3:0.406 4:22.136 
1 1:-0.243 2:0.568 3:0.409 4:4.123 
1 1:-0.083 2:0.159 3:-0.106 4:3.162 
1 1:0.182 2:0.265 3:0.251 4:2.236 
1 1:0.196 2:0.014 3:0.258 4:1 
1 1:-0.048 2:-0.244 3:0.103 4:1.414 
1 1:-0.394 2:-0.346 3:-0.076 4:2.236 
1 1:-0.087 2:0.538 3:0.032 4:2 
1 1:0.419 2:0.506 3:0.531 4:1.414 
1 1:0.394 2:-0.025 3:0.187 4:1 
1 1:0.182 2:-0.212 3:0.166 4:1 
1 1:-0.196 2:-0.378 3:0.133 4:1.414 
1 1:-0.303 2:0.478 3:0.222 4:3 
1 1:-0.048 2:0.256 3:-0.083 4:2 
1 1:0.291 2:0.339 3:0.258 4:1 
1 1:0.371 2:0.08 3:0.452 4:0 
1 1:0 2:-0.371 3:0.009 4:1 
1 1:-0.381 2:-0.381 3:0.071 4:2 
1 1:-0.508 2:0.095 3:0.19 4:12.083 
1 1:-0.394 2:0.438 3:-0.058 4:2.236 
1 1:0.102 2:0.496 3:0.09 4:1.414 
1 1:0.508 2:0.406 3:0.266 4:1 
1 1:0.648 2:0.14 3:0.141 4:1 
1 1:0.646 2:-0.002 3:0.04 4:1.414 
1 1:0.604 2:-0.042 3:0.247 4:2 
1 1:0.316 2:-0.288 3:0.028 4:3.162 
1 1:0 2:-0.316 3:0.055 4:4.472 
1 1:-0.371 2:-0.371 3:-0.014 4:5 
1 1:0.043 2:0.708 3:0.151 4:2 
1 1:0.6 2:0.557 3:0.472 4:1 
1 1:0.685 2:0.085 3:0.226 4:0 
1 1:0.543 2:-0.141 3:0.159 4:1 
1 1:0.243 2:-0.301 3:0.258 4:2 
1 1:-0.316 2:-0.559 3:0.074 4:3.162 
1 1:-0.243 2:0.339 3:0.173 4:3.162 
1 1:-0.077 2:0.166 3:-0.153 4:2.236 
1 1:0.243 2:0.319 3:0.226 4:2.236 
1 1:0.335 2:0.093 3:0.168 4:2 
1 1:0.26 2:-0.075 3:0.02 4:1.414 
1 1:0.164 2:-0.096 3:0.092 4:1 
1 1:-0.023 2:-0.188 3:0.048 4:2.236 
1 1:-0.259 2:-0.236 3:-0.009 4:2.828 
1 1:-0.486 2:-0.227 3:-0.066 4:3.606 
1 1:-0.164 2:0.405 3:0.044 4:5.385 
1 1:0.196 2:0.361 3:0.199 4:4.123 
1 1:0.357 2:0.161 3:0.071 4:3 
1 1:0.447 2:0.09 3:-0.077 4:2 
1 1:0.614 2:0.167 3:0.295 4:1.414 
1 1:0.486 2:-0.128 3:0.041 4:1 
1 1:0.316 2:-0.169 3:0.124 4:1 
1 1:0.023 2:-0.293 3:0.188 4:1.414 
1 1:-0.458 2:-0.481 3:-0.073 4:2.236 
1 1:-0.447 2:0.153 3:0.125 4:3.162 
1 1:-0.419 2:0.028 3:0.105 4:4.472 
1 1:-0.496 2:-0.077 3:-0.047 4:5.385 
1 1:-0.083 2:0.472 3:0.179 4:1.414 
1 1:0.21 2:0.293 3:0.154 4:0 
1 1:0.348 2:0.139 3:0.04 4:1 
1 1:0.447 2:0.099 3:0.333 4:2 
1 1:0.214 2:-0.234 3:0.296 4:3.162 
1 1:-0.316 2:-0.53 3:-0.2 4:3.606 
1 1:0 2:0.555 3:0.359 4:2 
1 1:0.196 2:0.196 3:-0.055 4:1 
1 1:0.447 2:0.251 3:0.239 4:0 
1 1:0.459 2:0.012 3:0.053 4:1 
1 1:0.419 2:-0.04 3:0.465 4:2 
1 1:-0.087 2:-0.506 3:-0.078 4:2.828 
1 1:-0.514 2:-0.428 3:-0.328 4:1.414 
1 1:0 2:0.684 3:0.488 4:2 
1 1:0.196 2:0.196 3:0.076 4:1 
1 1:0.316 2:0.12 3:0.469 4:0 
1 1:-0.032 2:-0.348 3:0.067 4:1 
1 1:-0.447 2:-0.415 3:0.13 4:2 
1 1:-0.476 2:0.079 3:-0.306 4:2.828 
1 1:-0.091 2:0.385 3:0.247 4:1.414 
1 1:0.048 2:0.138 3:0.044 4:1 
1 1:0.141 2:0.094 3:0.359 4:1.414 
1 1:-0.124 2:-0.265 3:-0.193 4:2.236 
1 1:-0.196 2:-0.072 3:-0.055 4:3.606 
1 1:-0.214 2:-0.018 3:0.35 4:5 
1 1:-0.488 2:0.326 3:0.545 4:1.414 
1 1:-0.316 2:0.391 3:-0.168 4:2 
1 1:0.243 2:0.559 3:0.354 4:1 
1 1:0.447 2:0.205 3:0.51 4:0 
1 1:0.141 2:-0.306 3:-0.023 4:1 
1 1:-0.141 2:-0.283 3:0.47 4:2 
1 1:-0.243 2:0.497 3:0.178 4:2.828 
1 1:0.077 2:0.319 3:0.2 4:1.414 
1 1:0.196 2:0.119 3:0.052 4:1 
1 1:0.263 2:0.067 3:0.088 4:1.414 
1 1:0.243 2:-0.021 3:0.759 4:2.236 
1 1:-0.141 2:0.681 3:0.343 4:2.236 
1 1:0.196 2:0.338 3:0.271 4:1.414 
1 1:0.263 2:0.067 3:0.014 4:1 
1 1:0.316 2:0.053 3:0.686 4:1.414 
1 1:-0.316 2:-0.632 3:-0.434 4:2.236 
1 1:-0.514 2:-0.198 3:0.131 4:3.162 
1 1:-0.447 2:0.447 3:0.316 4:3.606 
1 1:-0.316 2:0.131 3:-0.006 4:3.162 
1 1:-0.179 2:0.137 3:0.406 4:3 
1 1:-0.447 2:-0.268 3:-0.268 4:2.236 
1 1:-0.316 2:0.516 3:-0.043 4:1.414 
1 1:0.243 2:0.559 3:0.584 4:1 
1 1:0.217 2:-0.026 3:0.136 4:1 
1 1:0.055 2:-0.161 3:0.341 4:1.414 
1 1:-0.447 2:-0.503 3:-0.092 4:2 
1 1:-0.217 2:0.338 3:0.676 4:1 
1 1:-0.243 2:0.738 3:0.253 4:1 
1 1:0.243 2:0.485 3:1.044 4:0 
1 1:-0.316 2:-0.559 3:-0.017 4:1 
1 1:-0.333 2:0.467 3:0.276 4:2.828 
1 1:-0.141 2:0.191 3:0.05 4:2.236 
1 1:0 2:0.141 3:0.384 4:2 
1 1:-0.243 2:-0.243 3:0.255 4:1.414 
1 1:-0.371 2:0.279 3:0.064 4:1 
1 1:-0.156 2:0.215 3:0.184 4:0 
1 1:-0.124 2:0.032 3:0.072 4:1 
1 1:-0.164 2:-0.04 3:0.479 4:2 
1 1:-0.447 2:0.353 3:-0.094 4:3.606 
1 1:0 2:0.447 3:0.114 4:3.162 
1 1:0.333 2:0.333 3:0.272 4:2 
1 1:0.394 2:0.061 3:-0.033 4:1 
1 1:0.488 2:0.094 3:0.288 4:0 
1 1:0.294 2:-0.194 3:0.417 4:1 
1 1:-0.316 2:-0.61 3:-0.338 4:2 
1 1:-0.032 2:0.781 3:0.433 4:2.236 
1 1:0.316 2:0.348 3:0.34 4:1.414 
1 1:0.324 2:0.008 3:0.168 4:0 
1 1:0.164 2:-0.16 3:0.247 4:1 
1 1:0 2:0.651 3:0.008 4:1.414 
1 1:0.643 2:0.643 3:0.506 4:0 
1 1:0.781 2:0.138 3:0.319 4:1 
1 1:0.6 2:-0.181 3:0.339 4:2.236 
1 1:0.08 2:-0.52 3:0.205 4:2.828 
1 1:-0.316 2:0.552 3:-0.027 4:3.606 
1 1:0.263 2:0.579 3:0.242 4:3.162 
1 1:0.6 2:0.337 3:0.197 4:2 
1 1:0.74 2:0.14 3:0.066 4:1 
1 1:0.814 2:0.074 3:0.204 4:0 
1 1:0.684 2:-0.13 3:0.39 4:1 
1 1:0.164 2:-0.52 3:0.055 4:2 
1 1:-0.41 2:-0.575 3:-0.091 4:3 
1 1:-0.468 2:0.328 3:0.328 4:1 
1 1:-0.468 2:0 3:0.178 4:1 
1 1:-0.08 2:0.627 3:0.383 4:2.236 
1 1:0.164 2:0.244 3:0.084 4:1.414 
1 1:0.324 2:0.16 3:0.328 4:1 
1 1:0.156 2:-0.168 3:0.046 4:1 
1 1:-0.059 2:-0.215 3:0.308 4:1.414 
1 1:-0.217 2:0.326 3:0.265 4:3.162 
1 1:-0.156 2:0.061 3:-0.095 4:3 
1 1:0 2:0.156 3:0 4:2.236 
1 1:0.156 2:0.156 3:0.312 4:2.236 
1 1:0 2:-0.156 3:-0.069 4:3 
1 1:-0.087 2:-0.087 3:0.255 4:3.162 
1 1:-0.428 2:-0.341 3:-0.243 4:2.828 
1 1:-0.141 2:0.566 3:0.424 4:1 
1 1:0 2:0.141 3:0.391 4:1.414 
1 1:0 2:0.537 3:0.294 4:2.236 
1 1:0.243 2:0.243 3:0.139 4:1.414 
1 1:0.346 2:0.103 3:0.235 4:1 
1 1:0.214 2:-0.132 3:0.398 4:1 
1 1:-0.316 2:-0.53 3:-0.139 4:1.414 
1 1:-0.135 2:0.624 3:0.042 4:2 
1 1:0.447 2:0.582 3:0.475 4:1.414 
1 1:0.555 2:0.107 3:0.107 4:0 
1 1:0.555 2:0 3:0.679 4:1 
1 1:-0.124 2:-0.679 3:0.081 4:2.236 
1 1:0.124 2:0.831 3:0.4 4:3.162 
1 1:0.555 2:0.431 3:0.196 4:2.236 
1 1:0.789 2:0.235 3:0.235 4:1.414 
1 1:0.789 2:0 3:0.342 4:0 
1 1:0.447 2:-0.342 3:0.105 4:1 
1 1:0 2:-0.447 3:0.362 4:2 
1 1:-0.514 2:0.086 3:-0.135 4:1.414 
1 1:-0.294 2:0.22 3:0.441 4:1 
1 1:-0.514 2:-0.22 3:0.135 4:1 
1 1:0 2:0.6 3:0.153 4:2.236 
1 1:0.447 2:0.447 3:0.131 4:1.414 
1 1:0.763 2:0.316 3:0.318 4:0 
1 1:0.761 2:-0.002 3:0.159 4:1 
1 1:0.6 2:-0.161 3:0.123 4:2.236 
1 1:0.316 2:-0.284 3:0.349 4:2.828 
1 1:-0.316 2:-0.632 3:-0.242 4:3.606 
1 1:-0.316 2:0.516 3:-0.117 4:2.236 
1 1:0.316 2:0.632 3:0.349 4:1.414 
1 1:0.6 2:0.284 3:0.103 4:1 
1 1:0.781 2:0.181 3:0.255 4:1.414 
1 1:0.707 2:-0.074 3:0.137 4:2.236 
1 1:0.496 2:-0.211 3:0.427 4:3 
1 1:-0.141 2:-0.638 3:-0.072 4:4.123 
1 1:-0.41 2:0.398 3:-0.328 4:2 
1 1:0.555 2:0.087 3:0.261 4:1 
1 1:0.381 2:-0.174 3:0.207 4:1.414 
1 1:0 2:-0.381 3:0.349 4:2.236 
1 1:-0.488 2:0.18 3:-0.014 4:3.162 
1 1:-0.294 2:0.194 3:0.368 4:3 
1 1:-0.468 2:-0.174 3:-0.174 4:2.236 
1 1:-0.468 2:0 3:-0.174 4:2.236 
1 1:-0.294 2:0.174 3:0.225 4:3 
1 1:-0.346 2:-0.052 3:0.022 4:3.162 
1 1:-0.419 2:-0.073 3:0.004 4:3.606 
1 1:-0.496 2:-0.077 3:0.041 4:4.243 
1 1:-0.447 2:0.377 3:0.296 4:1 
1 1:-0.367 2:0.081 3:-0.209 4:0 
1 1:-0.077 2:0.29 3:0.269 4:1.414 
1 1:-0.055 2:0.021 3:0.299 4:2.236 
1 1:-0.333 2:-0.277 3:-0.044 4:3.162 
1 1:-0.367 2:0.341 3:0.115 4:1.414 
1 1:-0.141 2:0.225 3:0.225 4:1 
1 1:-0.141 2:0 3:0.413 4:1 
1 1:-0.496 2:0.293 3:-0.539 4:4 
1 1:0.336 2:0.832 3:0.462 4:3.162 
1 1:0.707 2:0.371 3:0.278 4:2.236 
1 1:0.8 2:0.093 3:0.135 4:1.414 
1 1:0.758 2:-0.042 3:0.238 4:0 
1 1:0.477 2:-0.281 3:0.32 4:1 
1 1:-0.124 2:-0.601 3:0.119 4:2.236 
1 1:0.124 2:0.749 3:0.273 4:2.828 
1 1:0.6 2:0.476 3:0.267 4:1.414 
1 1:0.809 2:0.209 3:0.327 4:0 
1 1:0.69 2:-0.118 3:0.309 4:1.414 
1 1:0.263 2:-0.427 3:0.152 4:2.236 
1 1:-0.316 2:-0.579 3:-0.027 4:3.162 
1 1:-0.419 2:0.465 3:0.046 4:1.414 
1 1:0 2:0.419 3:0.419 4:0 
1 1:0 2:0 3:0.263 4:1.414 
1 1:-0.263 2:-0.263 3:0.028 4:2.828 
1 1:0 2:0.555 3:-0.033 4:2 
1 1:0.588 2:0.588 3:0.432 4:1 
1 1:0.745 2:0.156 3:0.258 4:0 
1 1:0.643 2:-0.101 3:0.046 4:1 
1 1:0.496 2:-0.147 3:0.225 4:2 
1 1:0.124 2:-0.372 3:0.199 4:3.162 
1 1:-0.447 2:-0.571 3:-0.15 4:4.472 
1 1:-0.141 2:0.413 3:0.327 4:3.162 
1 1:-0.055 2:0.086 3:-0.053 4:2.236 
1 1:0.083 2:0.139 3:0.066 4:1.414 
1 1:0.156 2:0.073 3:0.393 4:1 
1 1:-0.164 2:-0.32 3:0.011 4:1 
1 1:-0.496 2:-0.332 3:0.067 4:1.414 
1 1:-0.476 2:0.064 3:-0.045 4:1.414 
1 1:-0.367 2:0.109 3:0.283 4:1 
1 1:-0.417 2:0.29 3:-0.032 4:2.236 
1 1:-0.095 2:0.322 3:0.078 4:1.414 
1 1:0.149 2:0.244 3:0.154 4:0 
1 1:0.24 2:0.09 3:0.018 4:1 
1 1:0.312 2:0.073 3:0.261 4:2 
1 1:0.124 2:-0.188 3:0.016 4:3.162 
1 1:-0.08 2:-0.204 3:-0.042 4:4.472 
1 1:-0.243 2:-0.162 3:0.095 4:5.831 
1 1:-0.5 2:-0.257 3:-0.106 4:7.211 
1 1:0 2:0.555 3:0.238 4:2.236 
1 1:0.316 2:0.316 3:0.032 4:1.414 
1 1:0.6 2:0.284 3:0.144 4:1 
1 1:0.74 2:0.14 3:0.173 4:1 
1 1:0.707 2:-0.033 3:0.227 4:1.414 
1 1:0.447 2:-0.26 3:0.122 4:2.236 
1 1:0.065 2:-0.382 3:0.204 4:3 
1 1:-0.521 2:-0.587 3:-0.214 4:3.162 
1 1:0.083 2:0.664 3:0.379 4:2.236 
1 1:0.368 2:0.285 3:0.178 4:1.414 
1 1:0.476 2:0.107 3:0.199 4:1 
1 1:0.385 2:-0.091 3:0.25 4:1 
1 1:0.043 2:-0.341 3:0.149 4:1.414 
1 1:-0.447 2:-0.491 3:-0.019 4:2.236 
1 1:0.371 2:1.161 3:0.947 4:2.236 
1 1:0.585 2:0.214 3:0.253 4:1.414 
1 1:0.546 2:-0.039 3:0.311 4:1 
1 1:-0.263 2:-0.459 3:0.278 4:3.162 
1 1:-0.21 2:0.498 3:0.178 4:1 
1 1:0.11 2:0.32 3:0.188 4:1 
1 1:0.243 2:0.132 3:0.292 4:1.414 
1 1:0.083 2:-0.159 3:0.295 4:2 
1 1:-0.371 2:-0.454 3:-0.078 4:2.236 
1 1:-0.316 2:0.541 3:-0.025 4:1 
1 1:0.25 2:0.566 3:0.573 4:1 
1 1:0.243 2:-0.007 3:0.152 4:1.414 
1 1:0.083 2:-0.159 3:0.295 4:2 
1 1:-0.371 2:-0.454 3:-0.212 4:2.236 
1 1:-0.196 2:0.511 3:-0.057 4:1.414 
1 1:0.371 2:0.568 3:0.314 4:1 
1 1:0.625 2:0.253 3:0.461 4:1 
1 1:0.417 2:-0.208 3:0.637 4:1.414 
1 1:-0.428 2:-0.845 3:-0.344 4:2 
1 1:0.141 2:-0.306 3:0.283 4:3.162 
1 1:-0.447 2:-0.589 3:-0.128 4:3.606 
1 1:-0.41 2:0.178 3:-0.185 4:1.414 
1 1:-0.048 2:0.363 3:0.205 4:2 
1 1:0.11 2:0.158 3:0.135 4:2.236 
1 1:0.134 2:0.023 3:0.157 4:2.236 
1 1:0 2:-0.134 3:0.233 4:2 
1 1:-0.367 2:-0.367 3:-0.01 4:1.414 
1 1:-0.486 2:0.162 3:-0.139 4:6.403 
1 1:-0.184 2:0.301 3:0.004 4:5.831 
1 1:0.113 2:0.297 3:0.077 4:5.385 
1 1:0.333 2:0.22 3:0.072 4:4.123 
1 1:0.481 2:0.148 3:0.043 4:3 
1 1:0.585 2:0.105 3:0.076 4:2.236 
1 1:0.614 2:0.028 3:0.157 4:1.414 
1 1:0.486 2:-0.128 3:0.173 4:1 
1 1:0.184 2:-0.301 3:0.12 4:1 
1 1:-0.237 2:-0.422 3:-0.002 4:1.414 
1 1:-0.447 2:0.107 3:-0.198 4:2.236 
1 1:-0.141 2:0.306 3:0.121 4:2 
1 1:0.043 2:0.185 3:-0.038 4:1.414 
1 1:0.267 2:0.223 3:0.187 4:2 
1 1:0.303 2:0.037 3:0.144 4:2.236 
1 1:0.196 2:-0.107 3:0.089 4:2.828 
1 1:0 2:-0.196 3:0.15 4:2.236 
1 1:-0.346 2:-0.346 3:0.109 4:1 
1 1:-0.401 2:0.541 3:-0.056 4:2.236 
1 1:0.196 2:0.597 3:0.238 4:1.414 
1 1:0.555 2:0.359 3:0.206 4:0 
1 1:0.707 2:0.152 3:0.1 4:1 
1 1:0.759 2:0.052 3:0.275 4:2.236 
1 1:0.537 2:-0.222 3:0.609 4:2.828 
1 1:-0.294 2:-0.831 3:-0.396 4:3.162 
1 1:-0.514 2:0.193 3:0.197 4:3.606 
1 1:-0.519 2:-0.004 3:-0.359 4:2.236 
1 1:-0.164 2:0.355 3:0.19 4:1.414 
1 1:0 2:0.164 3:0.241 4:0 
1 1:-0.077 2:-0.077 3:-0.043 4:1 
1 1:-0.11 2:-0.034 3:-0.01 4:2 
1 1:-0.134 2:-0.023 3:-0.074 4:3 
1 1:-0.083 2:0.051 3:0.284 4:4 
1 1:-0.316 2:-0.233 3:-0.082 4:5.099 
1 1:-0.468 2:-0.152 3:-0.172 4:6.325 
1 1:-0.447 2:0.021 3:0.198 4:7.616 
1 1:-0.316 2:0.493 3:0.235 4:6.403 
1 1:-0.059 2:0.258 3:0.034 4:5.831 
1 1:0.164 2:0.223 3:0.016 4:5.385 
1 1:0.371 2:0.207 3:0.147 4:4.123 
1 1:0.431 2:0.06 3:0.044 4:3.162 
1 1:0.447 2:0.016 3:0.36 4:2.236 
1 1:0.103 2:-0.344 3:-0.3 4:1.414 
1 1:0.059 2:-0.044 3:0.462 4:1 
1 1:-0.447 2:-0.506 3:-0.206 4:2 
1 1:-0.196 2:0.418 3:0.222 4:2 
1 1:0 2:0.196 3:-0.198 4:1.414 
1 1:0.394 2:0.394 3:0.538 4:2 
1 1:0.25 2:-0.144 3:0.183 4:2.236 
1 1:-0.077 2:-0.327 3:-0.032 4:2.236 
1 1:-0.371 2:-0.295 3:0.024 4:3 
1 1:-0.496 2:0.429 3:-0.151 4:3.606 
1 1:0.083 2:0.579 3:0.096 4:2.236 
1 1:0.567 2:0.483 3:0.212 4:1.414 
1 1:0.838 2:0.271 3:0.402 4:0 
1 1:0.707 2:-0.131 3:0.26 4:1 
1 1:0.316 2:-0.391 3:0.373 4:2.236 
1 1:-0.447 2:-0.763 3:-0.379 4:3.162 
1 1:-0.196 2:0.418 3:0.139 4:2 
1 1:0.083 2:0.279 3:0.12 4:1.414 
1 1:0.243 2:0.159 3:0.292 4:2 
1 1:0.11 2:-0.132 3:0.055 4:2.236 
1 1:-0.077 2:-0.187 3:0.251 4:2.236 
1 1:-0.514 2:-0.438 3:-0.109 4:2 
1 1:-0.196 2:0.418 3:0.139 4:2 
1 1:0.083 2:0.279 3:0.12 4:1.414 
1 1:0.243 2:0.159 3:0.292 4:2 
1 1:0.11 2:-0.132 3:0.055 4:2.236 
1 1:-0.077 2:-0.187 3:0.251 4:2.236 
1 1:-0.514 2:-0.438 3:-0.109 4:2 
1 1:-0.514 2:0.266 3:0.107 4:3.606 
1 1:-0.355 2:0.16 3:-0.195 4:2.236 
1 1:0 2:0.355 3:0.213 4:2 
1 1:0.141 2:0.141 3:0.054 4:1.414 
1 1:0.229 2:0.088 3:0.117 4:2 
1 1:0.2 2:-0.029 3:0.218 4:2.236 
1 1:-0.048 2:-0.248 3:-0.032 4:2.236 
1 1:-0.263 2:-0.216 3:0.11 4:3 
1 1:-0.164 2:0.424 3:0.259 4:1.414 
1 1:0 2:0.164 3:0.023 4:1 
1 1:0.141 2:0.141 3:0.149 4:1 
1 1:0.134 2:-0.008 3:-0.123 4:1.414 
1 1:0.25 2:0.116 3:0.443 4:2.236 
1 1:-0.077 2:-0.327 3:-0.032 4:2.828 
1 1:-0.371 2:-0.295 3:-0.342 4:1.414 
1 1:-0.324 2:0.047 3:0.17 4:1 
1 1:-0.447 2:-0.123 3:0.055 4:1 
1 1:-0.514 2:0.074 3:0.14 4:2.236 
1 1:-0.25 2:0.331 3:0.26 4:3.606 
1 1:-0.179 2:0.071 3:-0.049 4:2.828 
1 1:-0.059 2:0.12 3:0.217 4:2.236 
1 1:-0.156 2:-0.097 3:0.063 4:2 
1 1:-0.316 2:-0.16 3:-0.009 4:1.414 
1 1:-0.371 2:0.229 3:-0.143 4:1.414 
1 1:0 2:0.371 3:0.215 4:1 
1 1:0.156 2:0.156 3:0.153 4:1 
1 1:0.159 2:0.003 3:0.131 4:1.414 
1 1:0.031 2:-0.128 3:0.045 4:2.236 
1 1:-0.141 2:-0.173 3:-0.108 4:3.162 
1 1:-0.206 2:-0.065 3:0.177 4:4.123 
1 1:-0.447 2:-0.241 3:0.019 4:5 
1 1:-0.447 2:0.47 3:-0.142 4:3 
1 1:0.588 2:0.424 3:0.267 4:1 
1 1:0.745 2:0.156 3:0.194 4:0 
1 1:0.707 2:-0.037 3:0.08 4:1 
1 1:0.59 2:-0.117 3:0.563 4:2 
1 1:-0.091 2:-0.681 3:-0.003 4:2.236 
1 1:0 2:0.164 3:0.223 4:0 
1 1:-0.059 2:-0.059 3:0.199 4:1 
1 1:-0.316 2:-0.258 3:-0.005 4:2 
1 1:-0.514 2:0.221 3:0.154 4:4.472 
1 1:-0.447 2:0.067 3:0.008 4:4.123 
1 1:-0.388 2:0.059 3:0.271 4:4 
1 1:-0.359 2:0.247 3:0.098 4:2.236 
1 1:-0.21 2:0.149 3:-0.042 4:1.414 
1 1:-0.018 2:0.191 3:0.127 4:0 
1 1:0.046 2:0.064 3:0.006 4:1 
1 1:0.104 2:0.058 3:0.104 4:2 
1 1:0.058 2:-0.046 3:-0.098 4:1.414 
1 1:0.11 2:0.052 3:0.163 4:0 
1 1:0 2:-0.11 3:0.065 4:1.414 
1 1:-0.176 2:-0.176 3:0.109 4:2.236 
1 1:-0.46 2:-0.285 3:-0.053 4:3.606 
1 1:-0.488 2:0.107 3:0.114 4:1.414 
1 1:-0.495 2:-0.007 3:0.098 4:1 
1 1:-0.471 2:0.34 3:0.022 4:4.123 
1 1:-0.152 2:0.319 3:0.046 4:3.162 
1 1:0.12 2:0.272 3:0.13 4:2.236 
1 1:0.263 2:0.143 3:-0.008 4:1.414 
1 1:0.414 2:0.151 3:0.228 4:0 
1 1:0.337 2:-0.077 3:0.033 4:1 
1 1:0.227 2:-0.11 3:-0.089 4:2.236 
1 1:0.206 2:-0.021 3:0.118 4:3.162 
1 1:0.068 2:-0.139 3:-0.107 4:2.828 
1 1:0.036 2:-0.032 3:-0.067 4:1.414 
1 1:0.07 2:0.034 3:0.396 4:0 
1 1:-0.291 2:-0.361 3:-0.152 4:1.414 
1 1:-0.5 2:-0.209 3:0.07 4:2.236 
1 1:-0.493 2:0.149 3:0.027 4:4 
1 1:-0.371 2:0.122 3:0.066 4:3 
1 1:-0.316 2:0.055 3:0.037 4:2 
1 1:-0.298 2:0.019 3:-0.099 4:1 
1 1:-0.181 2:0.117 3:0.156 4:0 
1 1:-0.219 2:-0.039 3:0.092 4:1 
1 1:-0.35 2:-0.131 3:0.203 4:2 
1 1:-0.367 2:0.21 3:-0.004 4:4.123 
1 1:-0.153 2:0.214 3:-0.091 4:5.099 
1 1:0.152 2:0.305 3:0 4:5.831 
1 1:0.457 2:0.305 3:0.145 4:5 
1 1:0.617 2:0.16 3:0.07 4:4.243 
1 1:0.707 2:0.09 3:-0.004 4:3.606 
1 1:0.801 2:0.094 3:0.122 4:3.162 
1 1:0.773 2:-0.028 3:-0.007 4:2 
1 1:0.752 2:-0.021 3:0.076 4:1.414 
1 1:0.656 2:-0.097 3:0.028 4:1 
1 1:0.532 2:-0.124 3:0.091 4:0 
1 1:0.316 2:-0.215 3:0.101 4:1.414 
1 1:0 2:-0.316 3:0.177 4:2.236 
1 1:-0.493 2:-0.493 3:-0.058 4:3.606 
1 1:-0.5 2:0.289 3:0.16 4:7 
1 1:-0.371 2:0.129 3:-0.118 4:8.062 
1 1:-0.124 2:0.247 3:-0.041 4:8.062 
1 1:0.164 2:0.288 3:0.054 4:7 
1 1:0.399 2:0.234 3:0.102 4:6.083 
1 1:0.531 2:0.133 3:0.099 4:5.385 
1 1:0.565 2:0.033 3:0.014 4:4.472 
1 1:0.584 2:0.019 3:0.083 4:3.606 
1 1:0.52 2:-0.064 3:0.057 4:2.828 
1 1:0.4 2:-0.121 3:-0.112 4:2.236 
1 1:0.391 2:-0.008 3:0.114 4:2 
1 1:0.269 2:-0.122 3:0.052 4:1.414 
1 1:0.095 2:-0.174 3:-0.018 4:2 
1 1:-0.062 2:-0.156 3:0.076 4:2.236 
1 1:-0.294 2:-0.232 3:0.008 4:2.828 
1 1:-0.377 2:0.204 3:-0.107 4:4 
1 1:-0.066 2:0.311 3:0.02 4:3 
1 1:0.225 2:0.291 3:0.134 4:2.236 
1 1:0.382 2:0.157 3:0.038 4:1.414 
1 1:0.501 2:0.119 3:0.069 4:1 
1 1:0.552 2:0.051 3:0.057 4:1 
1 1:0.546 2:-0.007 3:0.015 4:1.414 
1 1:0.524 2:-0.021 3:0.156 4:2.236 
1 1:0.347 2:-0.177 3:0.035 4:3.162 
1 1:0.135 2:-0.212 3:0.049 4:4 
1 1:-0.126 2:-0.261 3:-0.099 4:5 
1 1:-0.287 2:-0.161 3:-0.008 4:6 
1 1:-0.441 2:-0.154 3:-0.019 4:7 
1 1:-0.495 2:0.095 3:-0.055 4:9.22 
1 1:-0.346 2:0.15 3:-0.024 4:8.246 
1 1:-0.172 2:0.173 3:-0.028 4:7.071 
1 1:0.029 2:0.202 3:-0.18 4:6 
1 1:0.412 2:0.382 3:0.155 4:5 
1 1:0.639 2:0.227 3:0.169 4:4 
1 1:0.697 2:0.058 3:-0.004 4:3 
1 1:0.759 2:0.062 3:0.032 4:2 
1 1:0.789 2:0.03 3:0.011 4:1 
1 1:0.809 2:0.019 3:0.099 4:0 
1 1:0.73 2:-0.079 3:-0.074 4:1 
1 1:0.725 2:-0.005 3:0.13 4:2 
1 1:0.59 2:-0.135 3:-0.04 4:3.162 
1 1:0.495 2:-0.095 3:0.113 4:3.606 
1 1:0.287 2:-0.208 3:-0.028 4:4.243 
1 1:0.108 2:-0.18 3:0.097 4:5.657 
1 1:-0.169 2:-0.277 3:0.089 4:7.071 
1 1:-0.489 2:0.162 3:-0.133 4:3.606 
1 1:-0.195 2:0.294 3:0.112 4:3.606 
1 1:-0.012 2:0.182 3:0.018 4:3.162 
1 1:0.152 2:0.165 3:0.077 4:3 
1 1:0.24 2:0.088 3:0.011 4:2.236 
1 1:0.316 2:0.077 3:0.016 4:2.236 
1 1:0.377 2:0.061 3:0.211 4:3 
1 1:0.228 2:-0.15 3:-0.004 4:3.162 
1 1:0.082 2:-0.145 3:-0.004 4:3.606 
1 1:-0.059 2:-0.141 3:0.136 4:4.243 
1 1:-0.336 2:-0.278 3:-0.281 4:5 
1 1:-0.333 2:0.004 3:0.225 4:6.403 
1 1:-0.404 2:0.196 3:0.073 4:1.414 
1 1:-0.281 2:0.123 3:0.061 4:1 
1 1:-0.22 2:0.062 3:0.124 4:1 
1 1:-0.281 2:-0.062 3:-0.001 4:1.414 
1 1:-0.342 2:-0.061 3:0.004 4:2.236 
1 1:-0.407 2:-0.065 3:0.192 4:3.162 
1 1:-0.452 2:0.162 3:-0.009 4:1 
1 1:-0.282 2:0.17 3:0.17 4:1 
1 1:-0.282 2:0 3:0 4:1.414 
1 1:-0.282 2:0 3:0 4:2.236 
1 1:-0.282 2:0 3:0.118 4:3.162 
1 1:-0.4 2:-0.118 3:0.003 4:4 
1 1:-0.52 2:-0.121 3:-0.035 4:5.099 
1 1:-0.514 2:0.434 3:0.023 4:4.123 
1 1:-0.103 2:0.412 3:0.122 4:3.162 
1 1:0.187 2:0.289 3:0.19 4:2.236 
1 1:0.286 2:0.1 3:-0.028 4:1.414 
1 1:0.414 2:0.128 3:0.128 4:1 
1 1:0.414 2:0 3:0.028 4:0 
1 1:0.387 2:-0.028 3:0.132 4:1 
1 1:0.227 2:-0.16 3:0.067 4:1.414 
1 1:-0.208 2:-0.051 3:0.237 4:4.243 
1 1:-0.496 2:-0.288 3:-0.152 4:4.472 
1 1:-0.52 2:0.156 3:0.23 4:0 
1 1:-0.179 2:0.402 3:0.027 4:5.385 
1 1:0.196 2:0.375 3:0.172 4:4.123 
1 1:0.399 2:0.203 3:0.066 4:3 
1 1:0.535 2:0.136 3:0.134 4:2.236 
1 1:0.537 2:0.002 3:0.043 4:1.414 
1 1:0.496 2:-0.041 3:0.181 4:1 
1 1:0.275 2:-0.221 3:0.021 4:1 
1 1:0.032 2:-0.242 3:0.099 4:1.414 
1 1:-0.309 2:-0.341 3:0.002 4:2.236 
1 1:0 2:0.528 3:0.32 4:3.606 
1 1:0.209 2:0.209 3:0.125 4:3.162 
1 1:0.293 2:0.084 3:-0.077 4:2 
1 1:0.454 2:0.161 3:0.025 4:1.414 
1 1:0.59 2:0.136 3:0.212 4:2 
1 1:0.514 2:-0.076 3:-0.041 4:2.236 
1 1:0.479 2:-0.035 3:0.16 4:2.828 
1 1:0.284 2:-0.195 3:0.197 4:2.236 
1 1:-0.108 2:-0.392 3:0.071 4:3 
1 1:-0.25 2:0.391 3:0.233 4:4.123 
1 1:-0.092 2:0.158 3:-0.09 4:3.162 
1 1:0.155 2:0.247 3:0.045 4:2.236 
1 1:0.358 2:0.203 3:0.129 4:1.414 
1 1:0.431 2:0.074 3:0.001 4:1 
1 1:0.504 2:0.073 3:0.235 4:1 
1 1:0.342 2:-0.163 3:-0.132 4:1.414 
1 1:0.311 2:-0.031 3:0.028 4:2.236 
1 1:0.252 2:-0.059 3:0.145 4:3.162 
1 1:0.048 2:-0.204 3:-0.029 4:4.123 
1 1:-0.128 2:-0.175 3:0.222 4:5.099 
1 1:-0.525 2:-0.397 3:-0.268 4:6 
1 1:-0.179 2:0.516 3:-0.159 4:5.099 
1 1:0.496 2:0.675 3:0.426 4:4 
1 1:0.745 2:0.249 3:0.162 4:3 
1 1:0.832 2:0.087 3:0.047 4:2 
1 1:0.872 2:0.04 3:-0.017 4:1 
1 1:0.93 2:0.058 3:0.059 4:0 
1 1:0.928 2:-0.002 3:0.032 4:1 
1 1:0.894 2:-0.033 3:0.029 4:2.236 
1 1:0.832 2:-0.062 3:0.063 4:2.828 
1 1:0.707 2:-0.125 3:0.027 4:3.606 
1 1:0.555 2:-0.152 3:0.402 4:4.472 
1 1:0 2:-0.555 3:0.152 4:5.385 
1 1:-0.083 2:0.472 3:0.068 4:4.123 
1 1:0.32 2:0.403 3:0.151 4:3.162 
1 1:0.573 2:0.252 3:0.086 4:2.236 
1 1:0.745 2:-0.066 3:0.039 4:2.828 
1 1:0.64 2:-0.105 3:0.171 4:4.243 
1 1:0.364 2:-0.276 3:0.089 4:5 
1 1:0 2:-0.364 3:-0.079 4:6.403 
1 1:-0.286 2:-0.286 3:-0.097 4:7.211 
1 1:-0.091 2:0.537 3:0.167 4:5 
1 1:0.28 2:0.371 3:0.081 4:4.243 
1 1:0.569 2:0.289 3:0.202 4:3.606 
1 1:0.657 2:0.088 3:0.066 4:3.162 
1 1:0.679 2:0.022 3:-0.045 4:3 
1 1:0.746 2:0.067 3:0.125 4:2.236 
1 1:0.688 2:-0.058 3:-0.049 4:1.414 
1 1:0.679 2:-0.009 3:0.077 4:0 
1 1:0.592 2:-0.086 3:0.083 4:1 
1 1:0.423 2:-0.17 3:0.016 4:2 
1 1:0.237 2:-0.186 3:0.314 4:3 
1 1:-0.263 2:-0.5 3:-0.096 4:4.123 
1 1:-0.391 2:0.146 3:0.086 4:3 
1 1:-0.331 2:0.06 3:-0.078 4:2.236 
1 1:-0.193 2:0.138 3:0.194 4:2.236 
1 1:-0.25 2:-0.057 3:0.23 4:2 
1 1:-0.275 2:0.347 3:0.043 4:1 
1 1:0.029 2:0.304 3:0.18 4:1 
1 1:0.153 2:0.124 3:0.081 4:1.414 
1 1:0.196 2:0.043 3:0.115 4:2.236 
1 1:0.124 2:-0.072 3:-0.029 4:2.236 
1 1:0.081 2:-0.043 3:0.178 4:2 
1 1:-0.14 2:-0.221 3:0.087 4:1.414 
1 1:-0.447 2:-0.307 3:-0.047 4:1 
1 1:-0.52 2:0.052 3:0.052 4:1.414 
1 1:-0.52 2:0 3:0.052 4:1 
1 1:-0.309 2:0.279 3:0.217 4:2 
1 1:-0.246 2:0.063 3:-0.06 4:2.236 
1 1:-0.124 2:0.122 3:0.244 4:2.828 
1 1:-0.246 2:-0.122 3:-0.176 4:3.162 
1 1:-0.192 2:0.054 3:0.054 4:2.236 
1 1:-0.192 2:0 3:-0.115 4:1.414 
1 1:-0.077 2:0.115 3:0.231 4:0 
1 1:-0.192 2:-0.115 3:0.077 4:1.414 
1 1:-0.385 2:-0.193 3:0.056 4:2.236 
1 1:0.294 2:0.008 3:0.146 4:2 
1 1:0.156 2:-0.138 3:-0.028 4:1.414 
1 1:0.046 2:-0.11 3:0.132 4:2 
1 1:-0.419 2:-0.223 3:-0.015 4:2.828 
1 1:-0.156 2:0.376 3:0.056 4:3.162 
1 1:0.164 2:0.32 3:0.169 4:2 
1 1:0.316 2:0.152 3:0.049 4:1.414 
1 1:0.452 2:-0.028 3:0.053 4:1.414 
1 1:0.371 2:-0.081 3:0.083 4:2 
1 1:0.207 2:-0.164 3:0.119 4:2.236 
1 1:-0.077 2:-0.284 3:0.024 4:3.606 
1 1:-0.385 2:-0.308 3:0.133 4:4.243 
1 1:-0.514 2:0.123 3:0.055 4:3.606 
1 1:-0.447 2:0.067 3:-0.116 4:2.236 
1 1:-0.264 2:0.183 3:0.019 4:1.414 
1 1:-0.1 2:0.164 3:0.216 4:0 
1 1:-0.152 2:-0.052 3:0.12 4:1 
1 1:-0.323 2:-0.172 3:-0.019 4:2.236 
1 1:-0.476 2:-0.153 3:0.028 4:3.606 
1 1:-0.468 2:0.164 3:0.022 4:1.414 
1 1:-0.326 2:0.142 3:0.021 4:2.236 
1 1:-0.205 2:0.121 3:-0.126 4:2.236 
1 1:0.042 2:0.247 3:0.039 4:1.414 
1 1:0.25 2:0.208 3:0.028 4:1 
1 1:0.43 2:0.18 3:0.062 4:1.414 
1 1:0.547 2:0.118 3:0.092 4:2.236 
1 1:0.573 2:0.026 3:-0.01 4:3.606 
1 1:0.61 2:0.037 3:0.065 4:5 
1 1:0.581 2:-0.029 3:-0.028 4:5 
1 1:0.58 2:-0.001 3:0.132 4:4.472 
1 1:0.447 2:-0.133 3:-0.054 4:4.123 
1 1:0.368 2:-0.079 3:0.058 4:4 
1 1:0.232 2:-0.137 3:0.088 4:3.162 
1 1:0.007 2:-0.225 3:0.027 4:2.828 
1 1:-0.244 2:-0.251 3:-0.021 4:2.236 
1 1:-0.475 2:-0.231 3:-0.057 4:3 
1 1:-0.52 2:0.179 3:0.072 4:2.236 
1 1:-0.414 2:0.106 3:0.035 4:1.414 
1 1:-0.343 2:0.071 3:0.106 4:1 
1 1:-0.377 2:-0.035 3:0.072 4:1 
1 1:-0.484 2:-0.106 3:0.024 4:1.414 
1 1:-0.412 2:0.143 3:-0.005 4:5.385 
1 1:-0.263 2:0.148 3:0.01 4:4.123 
1 1:-0.125 2:0.138 3:0.138 4:3 
1 1:-0.125 2:0 3:-0.058 4:2 
1 1:-0.067 2:0.058 3:0.133 4:1 
1 1:-0.141 2:-0.075 3:0.143 4:0 
1 1:-0.359 2:-0.218 3:0.04 4:1 
1 1:-0.077 2:0.54 3:-0.026 4:6.325 
1 1:0.489 2:0.566 3:0.304 4:5.385 
1 1:0.752 2:0.262 3:0.198 4:4.472 
1 1:0.816 2:0.064 3:0.008 4:3.162 
1 1:0.872 2:0.056 3:0.025 4:2.236 
1 1:0.903 2:0.031 3:0.044 4:1.414 
1 1:0.89 2:-0.013 3:-0.015 4:1 
1 1:0.891 2:0.001 3:0.023 4:0 
1 1:0.869 2:-0.022 3:0.013 4:1 
1 1:0.833 2:-0.035 3:0.06 4:2 
1 1:0.738 2:-0.095 3:0.113 4:3.162 
1 1:0.53 2:-0.208 3:-0.031 4:4.123 
1 1:0.353 2:-0.177 3:0.402 4:5.099 
1 1:-0.225 2:-0.578 3:-0.128 4:6.083 
1 1:-0.316 2:0.25 3:-0.019 4:2 
1 1:-0.048 2:0.269 3:0.11 4:1.414 
1 1:0.111 2:0.159 3:0.087 4:2 
1 1:0.183 2:0.072 3:0.041 4:1.414 
1 1:0.214 2:0.031 3:0.1 4:2.236 
1 1:0.145 2:-0.069 3:-0.069 4:1.414 
1 1:0.145 2:0 3:0.076 4:1 
1 1:0.069 2:-0.076 3:0.169 4:1 
1 1:-0.177 2:-0.245 3:0.045 4:1.414 
1 1:-0.467 2:-0.291 3:0.005 4:2.236 
1 1:-0.096 2:0.757 3:0.213 4:4 
1 1:0.447 2:0.544 3:0.265 4:3 
1 1:0.725 2:0.278 3:0.264 4:2 
1 1:0.74 2:0.014 3:-0.061 4:1 
1 1:0.815 2:0.075 3:0.183 4:0 
1 1:0.707 2:-0.108 3:0.079 4:1.414 
1 1:0.52 2:-0.187 3:0.191 4:2.236 
1 1:0.141 2:-0.379 3:0.079 4:3.606 
1 1:-0.499 2:0.283 3:0.014 4:4.123 
1 1:-0.23 2:0.269 3:0.183 4:3 
1 1:-0.143 2:0.087 3:0.087 4:2.236 
1 1:-0.143 2:0 3:0 4:1.414 
1 1:-0.143 2:0 3:0.239 4:1 
1 1:-0.382 2:-0.239 3:0.025 4:1 
1 1:-0.217 2:0.347 3:-0.079 4:4.123 
1 1:0.21 2:0.426 3:0.177 4:3.162 
1 1:0.459 2:0.25 3:0.146 4:2.236 
1 1:0.563 2:0.104 3:0.016 4:1.414 
1 1:0.651 2:0.088 3:0.154 4:0 
1 1:0.584 2:-0.066 3:0.06 4:1 
1 1:0.458 2:-0.126 3:-0.027 4:2.236 
1 1:0.359 2:-0.099 3:0.201 4:3.606 
1 1:0.059 2:-0.3 3:0.075 4:5 
1 1:-0.316 2:-0.375 3:-0.177 4:5.657 
1 1:-0.514 2:-0.198 3:0.009 4:7.071 
1 1:-0.458 2:0.35 3:0.188 4:5 
1 1:-0.296 2:0.162 3:-0.107 4:4.243 
1 1:-0.026 2:0.27 3:0.133 4:3.606 
1 1:0.11 2:0.137 3:-0.076 4:2.236 
1 1:0.323 2:0.213 3:0.13 4:2 
1 1:0.406 2:0.083 3:0.23 4:1.414 
1 1:0.259 2:-0.147 3:-0.186 4:1 
1 1:0.298 2:0.039 3:0.073 4:2.236 
1 1:0.263 2:-0.035 3:0.319 4:2.828 
1 1:-0.091 2:-0.354 3:-0.303 4:3.162 
1 1:-0.141 2:-0.051 3:0.144 4:4.123 
1 1:-0.336 2:-0.195 3:0.023 4:5 
1 1:-0.273 2:0.332 3:0.025 4:5.099 
1 1:0.033 2:0.306 3:0.065 4:4 
1 1:0.275 2:0.241 3:0.087 4:3.162 
1 1:0.429 2:0.154 3:0.281 4:2.828 
1 1:0.302 2:-0.127 3:-0.064 4:2.236 
1 1:0.24 2:-0.063 3:0.251 4:2 
1 1:-0.074 2:-0.314 3:0.108 4:1.414 
1 1:-0.496 2:-0.422 3:-0.096 4:1 
1 1:-0.496 2:0.304 3:-0.116 4:1 
1 1:-0.077 2:0.419 3:0.343 4:0 
1 1:0 2:0.077 3:-0.073 4:1 
1 1:0.149 2:0.149 3:0.143 4:2 
1 1:0.156 2:0.006 3:0.221 4:2.828 
1 1:-0.059 2:-0.215 3:-0.134 4:1.414 
1 1:-0.139 2:-0.081 3:0.186 4:1 
1 1:-0.406 2:-0.267 3:0.098 4:1 
1 1:0.156 2:1.004 3:0.793 4:4.243 
1 1:0.44 2:0.073 3:0.052 4:2.236 
1 1:0.46 2:0.021 3:-0.071 4:1.414 
1 1:0.552 2:0.091 3:0.183 4:0 
1 1:0.46 2:-0.091 3:0.16 4:1.414 
1 1:0.21 2:-0.251 3:0.168 4:2 
1 1:-0.359 2:0.339 3:-0.02 4:5.385 
1 1:0 2:0.359 3:-0.241 4:4.472 
1 1:0.6 2:0.6 3:0.419 4:3.606 
1 1:0.781 2:0.181 3:0.117 4:2.236 
1 1:0.845 2:0.064 3:0.036 4:1.414 
1 1:0.873 2:0.028 3:0.125 4:1 
1 1:0.776 2:-0.097 3:-0.029 4:0 
1 1:0.707 2:-0.069 3:0.007 4:1 
1 1:0.631 2:-0.076 3:0.359 4:1.414 
1 1:0.196 2:-0.435 3:0.094 4:2.236 
1 1:-0.333 2:-0.529 3:0.033 4:3.162 
1 1:-0.336 2:0.628 3:0.189 4:3.162 
1 1:0.103 2:0.439 3:0.07 4:2.236 
1 1:0.472 2:0.369 3:0.1 4:1.414 
1 1:0.74 2:0.268 3:0.243 4:0 
1 1:0.766 2:0.026 3:0.066 4:1.414 
1 1:0.725 2:-0.04 3:-0.007 4:2.236 
1 1:0.692 2:-0.034 3:0.416 4:3.162 
1 1:0.243 2:-0.449 3:0.5 4:4.123 
1 1:-0.243 2:0.557 3:0.048 4:3.162 
1 1:0.267 2:0.509 3:0.221 4:2.236 
1 1:0.555 2:0.288 3:0.136 4:1.414 
1 1:0.707 2:0.152 3:0.131 4:1 
1 1:0.729 2:0.022 3:0.081 4:1 
1 1:0.67 2:-0.059 3:-0.025 4:1 
1 1:0.636 2:-0.034 3:0.243 4:2 
1 1:0.359 2:-0.277 3:0.037 4:3.162 
1 1:0.045 2:-0.314 3:0.138 4:3.606 
1 1:-0.406 2:-0.452 3:-0.141 4:5 
1 1:-0.243 2:0.357 3:-0.128 4:4.123 
1 1:0.243 2:0.485 3:0.103 4:3.162 
1 1:0.625 2:0.382 3:0.211 4:2 
1 1:0.795 2:0.171 3:0.096 4:1 
1 1:0.87 2:0.075 3:0.121 4:0 
1 1:0.823 2:-0.047 3:-0.035 4:1 
1 1:0.812 2:-0.011 3:0.075 4:2 
1 1:0.725 2:-0.086 3:0.131 4:2.236 
1 1:0.508 2:-0.217 3:0.157 4:3.606 
1 1:0.134 2:-0.374 3:0.108 4:4.243 
1 1:-0.348 2:-0.482 3:-0.049 4:5 
1 1:-0.44 2:0.325 3:0.026 4:5.385 
1 1:-0.141 2:0.299 3:0.26 4:4.472 
1 1:-0.103 2:0.039 3:-0.141 4:3.162 
1 1:0.077 2:0.18 3:0.023 4:2.236 
1 1:0.233 2:0.156 3:0.073 4:1.414 
1 1:0.316 2:0.083 3:0.115 4:1 
1 1:0.284 2:-0.032 3:0.151 4:1 
1 1:0.102 2:-0.182 3:0 4:1 
1 1:-0.081 2:-0.183 3:0.116 4:2 
1 1:-0.379 2:-0.298 3:-0.113 4:3.162 
1 1:-0.122 2:0.421 3:0.049 4:5.099 
1 1:0.25 2:0.372 3:0.091 4:4.123 
1 1:0.531 2:0.281 3:0.275 4:3.162 
1 1:0.537 2:0.006 3:-0.132 4:2.236 
1 1:0.674 2:0.137 3:0.232 4:1.414 
1 1:0.579 2:-0.095 3:0.111 4:0 
1 1:0.373 2:-0.206 3:0.213 4:1 
1 1:-0.045 2:-0.419 3:-0.211 4:2.236 
1 1:-0.254 2:-0.208 3:0.263 4:3.162 
1 1:-0.213 2:0.357 3:0.293 4:0 
1 1:-0.149 2:0.065 3:0.169 4:1 
1 1:-0.253 2:-0.104 3:0.014 4:2.236 
1 1:-0.371 2:-0.118 3:0.065 4:3.606 
1 1:-0.486 2:-0.223 3:0.051 4:4.472 
1 1:0 2:0.759 3:0.443 4:4.123 
1 1:0.316 2:0.316 3:0.244 4:3 
1 1:0.388 2:0.072 3:0.072 4:2 
1 1:0.388 2:0 3:0.04 4:1 
1 1:0.348 2:-0.04 3:0.307 4:0 
1 1:0 2:-0.348 3:0.053 4:1.414 
1 1:-0.401 2:-0.401 3:-0.137 4:2.236 
1 1:-0.46 2:0.183 3:0.055 4:7.616 
1 1:-0.331 2:0.129 3:0.046 4:6.708 
1 1:-0.249 2:0.082 3:-0.087 4:5.831 
1 1:-0.08 2:0.169 3:-0.015 4:5 
1 1:0.105 2:0.184 3:0.123 4:4.243 
1 1:0.166 2:0.062 3:0.032 4:2.828 
1 1:0.196 2:0.03 3:-0.067 4:2.236 
1 1:0.293 2:0.097 3:0.112 4:2 
1 1:0.277 2:-0.016 3:-0.075 4:1.414 
1 1:0.336 2:0.059 3:0.204 4:2 
1 1:0.191 2:-0.145 3:-0.07 4:2.236 
1 1:0.116 2:-0.075 3:0.016 4:2.828 
1 1:0.024 2:-0.092 3:0.149 4:3.606 
1 1:-0.216 2:-0.24 3:0.005 4:4.123 
1 1:-0.461 2:-0.245 3:-0.092 4:5 
1 1:-0.412 2:0.153 3:0.306 4:0 
1 1:-0.392 2:0.163 3:0.163 4:0 
1 1:-0.392 2:0 3:0 4:1 
1 1:-0.392 2:0 3:0 4:2 
1 1:-0.392 2:0 3:0 4:3 
1 1:-0.392 2:0 3:-0.139 4:2.236 
1 1:-0.253 2:0.139 3:0.201 4:1 
1 1:-0.316 2:-0.063 3:0.211 4:0 
1 1:0.53 2:1.13 3:0.889 4:4.123 
1 1:0.771 2:0.241 3:0.06 4:5.099 
1 1:0.952 2:0.181 3:0.188 4:4.123 
1 1:0.945 2:-0.007 3:-0.005 4:3 
1 1:0.943 2:-0.002 3:0.028 4:2 
1 1:0.913 2:-0.03 3:0.001 4:1.414 
1 1:0.883 2:-0.031 3:0.086 4:0 
1 1:0.766 2:-0.117 3:0.065 4:1.414 
1 1:0.584 2:-0.182 3:-0.011 4:2.236 
1 1:0.414 2:-0.17 3:0.001 4:3.606 
1 1:-0.377 2:0.178 3:0.134 4:4.243 
1 1:-0.333 2:0.044 3:0.044 4:3.606 
1 1:-0.333 2:0 3:-0.158 4:2.236 
1 1:-0.175 2:0.158 3:0.158 4:2 
1 1:-0.175 2:0 3:0.241 4:1.414 
1 1:-0.417 2:-0.241 3:-0.046 4:0 
1 1:-0.506 2:0.167 3:-0.007 4:2.236 
1 1:-0.332 2:0.174 3:0.038 4:2 
1 1:-0.196 2:0.136 3:0.136 4:1.414 
1 1:-0.196 2:0 3:0.136 4:1 
1 1:-0.332 2:-0.136 3:-0.04 4:1 
1 1:-0.428 2:-0.096 3:0.057 4:1.414 
1 1:-0.356 2:0.277 3:-0.178 4:6.708 
1 1:0.1 2:0.455 3:0.312 4:5.385 
1 1:0.243 2:0.143 3:-0.214 4:4.472 
1 1:0.6 2:0.357 3:0.177 4:3.162 
1 1:0.781 2:0.181 3:0.14 4:2 
1 1:0.822 2:0.041 3:0.061 4:1.414 
1 1:0.802 2:-0.02 3:0.006 4:1 
1 1:0.776 2:-0.026 3:0.099 4:1 
1 1:0.651 2:-0.125 3:0.058 4:1 
1 1:0.468 2:-0.183 3:-0.114 4:2 
1 1:0.399 2:-0.069 3:0.165 4:3 
1 1:0.164 2:-0.234 3:0.166 4:4 
1 1:-0.236 2:-0.401 3:0.07 4:5 
1 1:-0.496 2:0.116 3:-0.064 4:9.22 
1 1:-0.316 2:0.18 3:0.102 4:8.544 
1 1:-0.239 2:0.078 3:-0.004 4:7.616 
1 1:-0.157 2:0.082 3:0.001 4:6.708 
1 1:-0.075 2:0.081 3:-0.075 4:5.831 
1 1:0.081 2:0.156 3:0.09 4:5 
1 1:0.147 2:0.066 3:-0.067 4:4.243 
1 1:0.28 2:0.133 3:0.184 4:3.606 
1 1:0.229 2:-0.051 3:-0.144 4:2.236 
1 1:0.322 2:0.093 3:0.093 4:2 
1 1:0.322 2:0 3:0.016 4:1.414 
1 1:0.307 2:-0.016 3:0.095 4:2 
1 1:0.196 2:-0.111 3:-0.017 4:2.236 
1 1:0.103 2:-0.093 3:-0.031 4:2.828 
1 1:0.041 2:-0.062 3:0.012 4:3.606 
1 1:-0.033 2:-0.074 3:-0.04 4:4.472 
1 1:-0.067 2:-0.033 3:0.175 4:5.385 
1 1:-0.275 2:-0.208 3:-0.133 4:6.083 
1 1:-0.35 2:-0.075 3:0.144 4:7.071 
1 1:-0.381 2:0.358 3:0.047 4:3.606 
1 1:-0.069 2:0.312 3:0.036 4:2.828 
1 1:0.207 2:0.276 3:0.036 4:2.236 
1 1:0.237 2:-0.277 3:0.001 4:6.083 
1 1:-0.041 2:-0.278 3:-0.126 4:6.325 
1 1:-0.193 2:-0.152 3:-0.057 4:7.616 
1 1:-0.287 2:-0.095 3:-0.011 4:8.944 
1 1:-0.385 2:0.199 3:-0.061 4:3.162 
1 1:-0.124 2:0.261 3:0.033 4:2.236 
1 1:-0.282 2:-0.139 3:-0.006 4:1.414 
1 1:-0.415 2:-0.133 3:0.005 4:1 
1 1:-0.496 2:0.089 3:-0.022 4:4.243 
1 1:-0.385 2:0.112 3:0.112 4:2.828 
1 1:-0.385 2:0 3:0 4:2.236 
1 1:-0.385 2:0 3:-0.013 4:2 
1 1:-0.371 2:0.013 3:-0.064 4:1.414 
1 1:-0.294 2:0.077 3:0.174 4:2 
1 1:-0.391 2:-0.097 3:0.045 4:2.236 
1 1:-0.447 2:0.107 3:0.078 4:4.243 
1 1:-0.418 2:0.029 3:-0.065 4:3.606 
1 1:-0.324 2:0.094 3:0.015 4:3.162 
1 1:-0.246 2:0.079 3:0.075 4:2 
1 1:-0.243 2:0.003 3:0.102 4:1.414 
1 1:-0.342 2:-0.099 3:-0.104 4:1 
1 1:-0.337 2:0.005 3:0.04 4:2.236 
1 1:-0.371 2:-0.035 3:0.005 4:2.828 
1 1:-0.411 2:-0.04 3:0.006 4:3.606 
1 1:-0.458 2:-0.046 3:0.142 4:4.472 
1 1:-0.456 2:0.161 3:0.115 4:5.657 
1 1:-0.41 2:0.046 3:-0.151 4:5 
1 1:-0.214 2:0.197 3:0.08 4:4.472 
1 1:-0.097 2:0.117 3:-0.062 4:4.123 
1 1:0.083 2:0.18 3:0.166 4:4 
1 1:0.097 2:0.014 3:-0.104 4:3.162 
1 1:0.214 2:0.117 3:0.04 4:2.828 
1 1:0.291 2:0.077 3:-0.025 4:3.162 
1 1:0.394 2:0.103 3:0.091 4:4 
1 1:0.406 2:0.012 3:0.01 4:4.123 
1 1:0.407 2:0.002 3:0.01 4:4.472 
1 1:0.399 2:-0.008 3:0.173 4:5 
1 1:0.218 2:-0.181 3:-0.156 4:3.606 
1 1:0.192 2:-0.026 3:0.108 4:3.162 
1 1:0.059 2:-0.133 3:-0.009 4:2 
1 1:-0.065 2:-0.124 3:0.127 4:1.414 
1 1:-0.316 2:-0.251 3:-0.155 4:1 
1 1:-0.412 2:-0.096 3:0.077 4:2.236 
1 1:-0.346 2:0.308 3:0.03 4:5.385 
1 1:-0.068 2:0.278 3:0.052 4:4.123 
1 1:0.158 2:0.225 3:-0.004 4:4 
1 1:0.387 2:0.229 3:0.117 4:3.162 
1 1:0.499 2:0.112 3:0.03 4:2.828 
1 1:0.581 2:0.082 3:0.071 4:3.162 
1 1:0.592 2:0.011 3:0.182 4:3 
1 1:0.421 2:-0.171 3:0.064 4:2.236 
1 1:0.186 2:-0.235 3:0.006 4:2.236 
1 1:-0.054 2:-0.241 3:0.119 4:3 
1 1:-0.414 2:-0.359 3:-0.076 4:3.162 
1 1:-0.487 2:0.101 3:0.029 4:2.236 
1 1:-0.415 2:0.072 3:-0.027 4:1.414 
1 1:-0.316 2:0.099 3:0.099 4:0 
1 1:-0.316 2:0 3:0.045 4:1 
1 1:-0.361 2:-0.045 3:0.056 4:2 
1 1:-0.462 2:-0.101 3:-0.101 4:3.162 
1 1:-0.462 2:0 3:0.152 4:4.123 
1 1:-0.196 2:0.345 3:-0.035 4:8.485 
1 1:0.184 2:0.38 3:0.09 4:7.071 
1 1:0.773 2:0.152 3:0.113 4:3.606 
1 1:0.812 2:0.039 3:-0.019 4:2.236 
1 1:0.869 2:0.058 3:0.035 4:1 
1 1:0.892 2:0.023 3:0.008 4:0 
1 1:0.907 2:0.015 3:0.032 4:1 
1 1:0.891 2:-0.017 3:0.007 4:2 
1 1:0.867 2:-0.024 3:-0.012 4:3 
1 1:0.854 2:-0.012 3:0.094 4:4 
1 1:0.747 2:-0.107 3:-0.015 4:5 
1 1:0.656 2:-0.092 3:0.141 4:6 
1 1:0.423 2:-0.233 3:0.023 4:7 
1 1:0.167 2:-0.255 3:0.096 4:8 
1 1:-0.184 2:-0.351 3:-0.107 4:9 
1 1:-0.452 2:0.176 3:0.022 4:1 
1 1:-0.297 2:0.154 3:0.154 4:0 
1 1:-0.297 2:0 3:0 4:1 
1 1:-0.297 2:0 3:0.142 4:2 
1 1:-0.44 2:-0.142 3:0.018 4:3.162 
1 1:-0.498 2:0.102 3:0.149 4:5.099 
1 1:-0.447 2:0.225 3:-0.249 4:6.708 
1 1:0.028 2:0.475 3:0.175 4:5.385 
1 1:0.327 2:0.299 3:0.017 4:4.123 
1 1:0.61 2:0.283 3:0.247 4:3 
1 1:0.646 2:0.036 3:-0.047 4:2 
1 1:0.729 2:0.083 3:0.086 4:1.414 
1 1:0.726 2:-0.003 3:-0.031 4:1 
1 1:0.753 2:0.028 3:0.074 4:1 
1 1:0.707 2:-0.046 3:-0.028 4:1.414 
1 1:0.689 2:-0.018 3:0.098 4:2.236 
1 1:0.572 2:-0.117 3:0.071 4:3.162 
1 1:0.385 2:-0.188 3:0.001 4:4.123 
1 1:0.196 2:-0.188 3:0.185 4:5.099 
1 1:-0.177 2:-0.374 3:0.004 4:6 
1 1:-0.486 2:0.314 3:-0.085 4:8.062 
1 1:-0.087 2:0.399 3:0.058 4:6.708 
1 1:0.254 2:0.341 3:0.074 4:6.325 
1 1:0.521 2:0.267 3:0.104 4:5.099 
1 1:0.684 2:0.163 3:0.102 4:4 
1 1:0.745 2:0.061 3:-0.021 4:3 
1 1:0.828 2:0.082 3:0.088 4:2.236 
1 1:0.822 2:-0.005 3:0.008 4:1.414 
1 1:0.809 2:-0.013 3:0.031 4:1 
1 1:0.765 2:-0.045 3:-0.002 4:1 
1 1:0.722 2:-0.042 3:0.057 4:1.414 
1 1:0.623 2:-0.099 3:-0.053 4:2.236 
1 1:0.577 2:-0.046 3:0.127 4:3.162 
1 1:0.404 2:-0.173 3:-0.027 4:4.123 
1 1:0.258 2:-0.147 3:0.192 4:5.099 
1 1:-0.081 2:-0.338 3:-0.039 4:6 
1 1:-0.381 2:-0.3 3:-0.18 4:7 
1 1:-0.501 2:-0.12 3:0.061 4:8 
1 1:-0.442 2:0.149 3:0.016 4:3 
1 1:-0.309 2:0.133 3:-0.053 4:2 
1 1:0.127 2:0.017 3:-0.056 4:2 
1 1:0.2 2:0.073 3:0.099 4:3 
1 1:0.174 2:-0.026 3:-0.109 4:4.123 
1 1:0.256 2:0.082 3:-0.036 4:5.099 
1 1:0.374 2:0.118 3:0.022 4:5.657 
1 1:0.471 2:0.096 3:0.088 4:5 
1 1:0.479 2:0.008 3:0.016 4:4.472 
1 1:0.471 2:-0.008 3:0.016 4:3.162 
1 1:0.447 2:-0.024 3:0.022 4:3 
1 1:0.401 2:-0.046 3:0.008 4:2.236 
1 1:0.346 2:-0.055 3:-0.017 4:2.236 
1 1:0.309 2:-0.038 3:0.052 4:3 
1 1:-0.422 2:-0.173 3:-0.047 4:7 
1 1:-0.427 2:0.379 3:-0.008 4:4.123 
1 1:-0.04 2:0.387 3:0.213 4:3.162 
1 1:0.134 2:0.174 3:-0.005 4:2.828 
1 1:0.312 2:0.178 3:0.043 4:2.236 
1 1:0.447 2:0.135 3:-0.018 4:2 
1 1:0.6 2:0.153 3:0.068 4:1.414 
1 1:0.774 2:0.067 3:0.088 4:2.236 
1 1:0.753 2:-0.021 3:-0.063 4:3 
1 1:0.794 2:0.042 3:0.049 4:3.162 
1 1:0.787 2:-0.007 3:0.029 4:3.606 
1 1:0.75 2:-0.037 3:0.116 4:4.243 
1 1:0.598 2:-0.152 3:0.13 4:5 
1 1:0.316 2:-0.282 3:0.117 4:5.831 
1 1:-0.083 2:-0.399 3:-0.141 4:5.099 
1 1:-0.342 2:-0.259 3:-0.224 4:4.123 
1 1:-0.377 2:-0.035 3:0.043 4:3.162 
1 1:-0.454 2:-0.078 3:-0.036 4:2.236 
1 1:-0.496 2:-0.042 3:0.04 4:1.414 
1 1:-0.439 2:0.248 3:0.04 4:5 
1 1:-0.231 2:0.208 3:0.096 4:4 
1 1:-0.119 2:0.112 3:-0.006 4:3 
1 1:0 2:0.119 3:0.008 4:2 
1 1:0.11 2:0.11 3:0.004 4:1 
1 1:0.107 2:-0.067 3:0.039 4:2.828 
1 1:0 2:-0.107 3:0.036 4:4.243 
1 1:-0.143 2:-0.143 3:0.031 4:5 
1 1:-0.316 2:-0.174 3:0.03 4:5.831 
1 1:0.243 2:0.349 3:0.107 4:5 
1 1:0.624 2:0.14 3:0.024 4:3.162 
1 1:0.74 2:0.116 3:0.051 4:2 
1 1:0.804 2:0.064 3:0.008 4:1 
1 1:0.86 2:0.056 3:0.093 4:0 
1 1:0.824 2:-0.036 3:-0.056 4:1 
1 1:0.843 2:0.019 3:0.038 4:2 
1 1:0.824 2:-0.019 3:0.022 4:3.162 
1 1:0.783 2:-0.041 3:-0.017 4:4.472 
1 1:0.759 2:-0.024 3:0.15 4:5.831 
